116 300
year -0.0014081472 0.00021886722 -0.001195417 -0.000502907 0.00042897242 0.0015487096 -0.0010221628 -0.0012400332 0.0015139387 -0.0016702398 0.00120893 -0.0011093465 0.00045622978 -0.0011922496 -0.0006402057 0.001261705 -0.0009670002 0.0008372763 -0.00031308812 0.0006180235 -0.00017180231 0.001362746 0.0012986165 0.0015864731 0.000980638 -0.0006067661 0.0008028615 0.00095887156 -0.001263194 -0.0008500878 -0.0015731322 0.00011117466 0.0010700974 -0.0002936595 0.0007942618 0.00022910582 0.00021490386 0.00015838727 -0.0005300204 0.00080876844 0.0008218528 7.552866e-05 0.0012406553 -0.00019470358 -0.00027741576 0.00080056285 0.00049740565 -0.0013194158 -0.00047575534 -0.0006816853 0.001606932 -0.0016363487 0.001216853 -0.0011955511 -0.000986768 0.0010516214 0.0010387995 -0.00040378683 -0.0002284243 0.00047217592 0.00060980575 0.000906339 0.000537541 -0.0006884301 -0.000381053 -0.0011467629 0.0010067312 -0.0009082275 -0.00031677767 0.0009388304 0.0014449499 -7.4059855e-05 3.2820168e-05 -0.0005622141 0.0012415635 -0.0012202172 -0.0011751889 5.1994775e-05 0.0004996264 -0.0013903867 -0.001176328 -0.00032663523 -0.0011712475 -9.241461e-05 -0.0013321326 -0.0007248374 0.000551522 0.0010064298 -0.00024394954 -0.00047420897 -0.00014008759 9.0752255e-05 -0.0010406594 -0.0011345333 -1.8359884e-05 -0.00086345844 0.00068464485 7.411379e-05 0.0004503233 0.0011714195 0.001206975 -0.00057363743 -0.00108095 0.0012453612 -0.0012049722 -0.0002749657 0.0002531726 -0.0013157603 0.0012341697 0.00093451806 0.0008794691 0.0009725597 0.0009290121 0.0011204394 -0.001203474 -0.0015083224 0.000989553 0.0003299421 -0.001521737 -0.0015334215 0.00022327261 -0.0013362984 0.0012569112 -0.0015741502 -6.52009e-05 0.00036869934 0.0016250861 -0.0013591481 -0.0014904962 -0.0006844947 -2.3895365e-05 0.0013355743 -0.0007533723 -0.00022262314 0.00084498187 0.0010878005 -0.0003817186 0.00030115552 -0.0009852169 0.0013558234 -0.00010826473 0.0010707276 0.0009103315 -0.0015534944 -0.00038689343 -0.0006141337 0.0005286674 -0.0013267294 -0.0003934551 0.0010435751 -0.0015854731 0.00018636482 0.0016348676 -0.0012747823 0.00085724494 0.00064936857 -0.00082466967 -0.0011240978 0.00010161723 0.00027102444 -0.00014263472 -0.00024958185 0.001265873 -0.00030113515 0.0011438881 0.00046003057 0.0009380501 -0.0013445454 -0.0015008479 0.0012782164 -0.0009842488 0.00047667648 0.0009917007 -0.0006078981 -0.00017955851 -0.00058799336 -0.001371718 0.00014595926 0.0013410156 -0.0001335719 -0.0015605027 -0.0007412255 -0.000101638674 0.00082545396 -6.796734e-05 0.0008062067 0.00027077293 -9.93766e-05 0.00062613684 -0.0008754453 -0.0011200131 -0.0007195281 0.0006140051 -0.00022479243 -0.00066703215 0.00013797246 0.0015839398 -0.0012815072 0.0008565736 -0.0009515258 0.0010005829 0.00055893976 0.0008438778 0.00081061217 -0.000810101 0.0014471494 0.0015926238 -0.00014911153 -0.0010027824 -0.0013903948 -0.0014174466 0.0014782795 -1.4888319e-05 0.00085419253 -0.0003266131 0.0005675796 0.001542787 -0.00058110023 0.0012482976 -0.0006471021 0.00089376606 0.0013504016 0.000886118 0.0012332987 -0.0008913928 -0.0013149112 0.0013811659 0.0010095956 -0.00067878584 0.0013765072 0.0011982502 0.0004091279 0.0014483243 -0.000120166966 -0.001427574 0.0012971434 -0.0016412948 0.0013777078 0.0012214817 -0.00016625362 0.0012642633 -0.0015899676 -0.0006057318 -0.0013453906 0.00090962363 -0.00040619797 0.0015336428 -0.0014633021 -0.0011762473 -2.4537285e-05 0.00083924155 -0.0011376353 0.00082642556 0.0015083187 -0.0006053687 -4.397804e-05 -0.0013619364 -0.0007336912 0.00036300757 -0.0016528503 -0.00026622406 -0.0012480052 -0.00019560137 -0.00042822212 -0.0010154521 -6.832153e-05 0.0016552047 0.0014594853 0.0015903766 0.00035661945 0.00042814275 -0.0013413032 0.0010725174 -0.0011665211 -0.0013357121 -0.00036509216 0.0007772894 0.00034028932 -0.00022611624 -0.0014597323 -0.00026784439 0.0006248015 -0.00039633916 -0.0010624666 0.0004448884 0.0009836148 0.000927522 -0.0010682923 -0.0003185031 -0.001673773 -0.00060314866 0.0013390804 -0.00086717936 0.00029510667 0.0009155443 -0.0001359078 0.0007475088 -0.00034817285 0.0012884417 -0.0015817919
priyanka 0.00030096373 0.0011772284 -0.00037559777 0.00034142862 0.0016003872 0.0016559362 0.00019966062 -0.0014406418 0.00068570126 -0.0016389978 0.0007724822 -4.6690375e-06 0.000106945 -0.0001900912 0.001603159 0.0009634687 0.00072625565 0.00026665154 0.0015208725 -0.0011621023 0.00068676425 -0.0007417264 -0.0005011755 0.0014726239 -0.0012900596 0.00042060585 0.0008073071 0.0010034227 -0.00069717196 0.00082016626 -0.0006223922 -0.0006698135 0.001139485 0.0005516987 -0.00027467482 -0.0014237128 -0.0009399668 -6.93244e-05 0.0010477088 0.0006411408 0.0013180968 -0.0007665298 -0.00090845523 0.0014168781 0.00012526644 0.00071599084 -0.00029817186 -0.0013464974 0.00029907032 0.0016555957 -0.00059478456 -0.0007818119 0.00094381394 -0.00064804417 -0.001437802 -0.0013893626 -0.0014526166 0.00035928795 0.0011597659 0.0014310252 -0.00022332532 -9.638101e-05 -5.9360787e-05 -0.00086777995 0.0011456821 0.00020826694 0.0012437771 0.0015646641 0.0006917444 -0.00073212513 -0.0009906243 0.0010244299 -3.5337835e-05 2.1321906e-05 0.00083492865 0.0015097708 0.00060611335 -0.0013774249 -3.809909e-05 0.0011925786 -0.0012093803 0.00080762 -0.00090777595 -0.001340821 -0.00041188928 -0.0007461725 0.00030765703 -0.0013773803 -0.00032820422 -0.0013591592 -0.0006454293 -0.0013856617 0.00091618457 0.00015215857 -0.00015788515 0.0015630836 0.0012270388 0.0015376378 3.8422953e-05 0.0013635192 0.0010386716 -0.0016302328 -0.0005780889 0.00019970251 -0.0016440907 -0.00024146576 0.0003616361 0.0016743729 -0.0010091449 -0.000325765 0.0012937416 0.0013331152 -0.0011731108 -8.6607244e-05 0.0014634051 0.00045920545 4.9779133e-05 -0.00020462072 0.0010320303 -0.0016818102 -0.0009549803 0.0016243971 0.00094822556 -0.0010394299 0.0014445838 -0.00048044685 -0.0011394476 5.867728e-06 -0.0010710688 0.00096558785 0.0006106636 -3.5596563e-06 -0.00038151475 -0.0010313321 -0.0015224874 0.0013765013 -0.0002519953 0.0013087486 -0.00025691252 0.0014906216 0.0012622774 0.00014716422 -0.0012886873 -0.00069334253 -0.0006985818 0.00056806364 -0.0006328786 0.0009897238 0.0014836311 0.0014891856 0.0004890615 -0.0002801905 -0.00058117637 0.00080132857 -0.00090513314 -0.0011579237 0.0013952291 -0.00040314175 -0.001080934 0.0011739734 0.0014634641 -0.0013540236 -0.00026945467 -0.0016670383 0.0007875185 -0.00061601127 -0.0007011963 -0.001491766 -0.0003347587 -0.0011015491 0.001314142 0.0010122047 9.897976e-05 0.0012866101 -0.00074856554 -0.00064607756 3.1444288e-05 -0.0014146297 0.0014419905 -0.0007392116 -0.0008347144 -0.000828485 -0.0013758863 0.00061035657 0.00030741832 -0.001229596 0.0012870204 0.00073951605 -0.001570298 -0.0013550409 0.0011182873 0.001287498 -0.00077251636 -0.0012255991 -0.00048760895 0.00011657973 -0.0016655233 0.00096189353 0.00073814637 -0.0015686842 0.0009209183 -0.001243437 -4.0233725e-05 -0.00037038926 -0.0006737868 0.00074993534 0.0016095927 0.000115765746 0.0014764571 -0.00017565231 -0.0009004631 -0.0011383267 -0.0014664662 0.0009822403 0.0013164964 -0.0015909044 -0.0015736625 0.0006768311 0.0005021772 -0.0012243378 0.00097593805 0.00084240496 0.00082628604 -0.00081041467 -0.00024692866 9.970642e-05 0.0014990296 -0.0013096221 -0.0009787664 0.0013150253 0.0012402928 -0.0012963606 0.00043898853 -0.0005261979 0.0009892902 0.000976649 -0.00074216886 -0.0004829491 0.0001433458 -0.001449428 -0.0009009983 0.0009837365 0.0016222777 -0.00029322557 -0.0010908551 0.0009445365 -0.00035836094 4.298606e-05 0.0005279023 0.0010332054 0.0014235236 0.00053564715 0.0015349288 0.0013605368 -0.0014682442 0.00050911703 -0.0016848338 -0.0010488374 0.0007100211 -0.00042839342 -0.0011327781 0.0011400866 0.0012915058 0.00027545917 0.0010454397 0.00061775965 0.0006049097 -0.0014393271 -0.000813763 -0.00073335145 -0.0005766977 0.00020458607 0.0015431052 -0.0011879342 8.2419116e-05 -0.0011401988 -0.00039972295 0.00039352485 -0.0007279518 -0.0014235195 -0.001527035 0.0004883647 0.0015979164 -0.0005680626 0.00018004359 -0.00011740598 -1.928681e-06 -0.0007986792 -0.0002932593 -0.0008778252 0.0007381054 -0.0006630577 0.0008508758 0.0010593964 0.00120457 -0.0010934978 -0.0011771795 0.0016489926 0.001179821 -0.0009727539
nick 0.00089993665 -0.0009115287 -0.00022145147 -0.0015338775 -0.0015071472 0.0004692458 -0.0011225574 0.0014926803 0.00088519824 0.0007731977 -0.0011152218 -0.0011043542 -0.0011551348 -0.00067126774 0.00015426401 -0.00048051862 0.0010113443 0.0005047618 0.0010173563 0.0010672747 8.860537e-05 -0.00023014568 0.0002562994 0.00056003133 0.0006258983 0.0001081342 -0.00077717233 0.00081191654 0.0008817217 -1.262661e-05 -0.0012000394 -0.0009774405 -2.7447386e-05 0.0011804563 -0.0015672757 -0.0007962027 -0.00085796067 -0.0013561611 0.0012911217 0.0014971347 0.0010057514 0.00068021036 -0.0014874967 0.0011775569 0.0007395521 -0.0008068092 0.00081034424 -0.00089752243 0.0013410208 0.0010084363 -0.0015449688 -0.00014725892 0.0015590227 0.001583378 0.0012123502 -0.0008218383 0.0014275203 -0.0015152551 0.0007500519 0.0010314914 0.00017040138 -0.0008364845 0.0014956371 -0.00045260886 0.00043779856 -0.0013008487 0.0014691427 -0.0011288607 -0.0015937362 -0.001185985 0.00043041864 -0.0007446452 -0.0014584169 0.0014409238 0.00027887902 0.0001040696 -0.00037156558 0.0011586855 -0.0015303724 -0.0004944648 0.0004228304 0.0008192975 0.00022905854 1.6679835e-05 0.0010298915 0.0016019914 -0.0013770502 0.0014057927 0.00036288088 -0.00095169357 -0.0014503594 0.00038363814 0.0011403818 0.0012466735 -0.0011057622 -0.0014176879 0.0016418743 0.00073679717 0.0014899742 -0.00013220511 -0.00029136246 0.00025470732 -9.3091374e-05 0.0013188589 -0.0012484728 0.00040101339 -8.1574726e-05 -0.00041920337 0.0012148818 -0.00094923936 -0.0011027246 -0.00014979317 0.00049808907 0.0007046771 -0.0014791179 0.00068382197 0.00050322013 0.0015212027 -0.0010790159 -0.00038618682 0.00022322198 -0.000362969 0.0005479037 0.0014992843 -0.0006459019 -9.471768e-05 0.00074618036 7.299983e-05 -0.0004747118 -0.0015027744 -0.0015359587 0.0013270426 -0.00090928935 0.0016269344 0.0010014656 -0.000542399 -0.0016155283 0.00093101757 0.0006033396 3.4669006e-06 0.000677358 -0.0007202054 -0.0014145541 0.001526893 0.00078872533 -0.0013889138 0.0006727873 0.001030218 2.049204e-05 -0.0006838185 -0.0014691232 0.001391258 0.0009158598 -0.0012716897 0.00063585676 0.0013698086 -0.0013934978 0.0004938122 0.0016180399 0.00037292007 -0.00046812865 0.0016234188 0.0012917836 -0.0012840473 0.0007646694 -0.00047414476 0.000997946 0.00028515107 -0.0012778485 0.0014080744 0.0004458904 0.0014582039 -0.00011163214 -0.00075975736 -0.00079452165 -0.0014576449 -0.00054374925 -0.0004590016 0.0015581733 0.0016098749 0.0016420733 0.0012614317 0.00085317803 -0.000387183 0.0010081227 -0.0012727554 -0.00049559696 -0.0015807123 0.0008515085 0.00065094896 0.00022055261 -0.0015716128 0.0010245164 -0.00046925424 0.00111067 0.000959617 0.0012395692 0.0013549156 2.9842524e-05 0.00044130138 0.0011344838 -0.0013472972 -0.0013152524 -0.0014779724 -0.0011982524 -0.0012699416 0.0011233013 0.00081313925 0.0001633601 0.0010817258 -0.0012213245 -0.00018231207 -0.00079786294 0.0011074818 0.001053861 0.0005060717 -0.0011936373 3.859082e-05 0.001124334 -7.483015e-05 -0.00024368451 -0.0010849667 0.0009372985 -0.0011517119 -0.0008219883 -0.00079120946 -0.0015339254 -0.00060928817 -0.00021161583 -0.0011693076 0.00029932166 -0.00086551753 -0.0011096748 -0.00028264773 -0.0006099301 -0.0004524029 0.0011700487 0.00016790477 -0.00061972847 -0.0014967335 -0.0014410313 -0.00021599272 0.00059861585 -0.0010118722 -0.0008693332 0.00068852433 5.474093e-05 0.000295506 -0.00039080967 -7.8105404e-05 -0.0008668449 0.0015483405 -0.0005414498 -0.0002557298 -0.0003106506 -0.001292964 0.0009065042 0.00068746397 -0.0015207903 -0.0013992534 -0.00062186684 8.2086706e-07 0.0001271578 0.0011874131 0.0009273948 0.00064654875 -0.00012006471 -0.00028153963 0.0012431566 0.0015236659 0.0013959518 -0.0002061944 -0.0006945352 -0.0005688805 0.0013995006 0.0016299693 0.0010657746 0.00025447513 -0.0005463956 9.024466e-05 0.00046151306 0.00096683577 0.00073645776 0.00048280347 0.0004895704 -0.0011326434 0.00055157975 -0.00020218876 -0.0003668342 0.00056168134 -0.0014201589 -0.0002524493 0.0005977163 5.382244e-05 0.0006826398 -0.0012111289 -0.0011570951 0.00082476885 -0.001228354 2.6677595e-05
deepika -6.0779006e-05 0.0001083301 3.7972844e-05 0.00052483263 -0.00153373 1.3043896e-05 -0.00043119374 -0.00013318106 -0.0006820368 0.001128134 0.00059731666 0.0001304134 0.0016236287 -0.0010902459 -0.0002866591 -0.00079007214 -0.0002060027 -0.0005272124 0.0004665716 0.0008809441 -0.00054851174 -0.0010635043 -0.00071556563 -0.0009953008 0.0012495 -0.0015866298 -0.00017658423 0.0010010811 0.0015443296 -0.000772976 -0.0010220131 -0.0002516842 -0.0005648806 0.00079045224 0.001474973 -0.00083309115 0.0012902507 -0.00036828956 -0.00017110136 -0.00040401044 0.00023273348 0.0014581755 0.0012952143 -0.0002116127 -0.0002698122 0.0014705709 -0.00035292955 0.0015547952 0.0006218152 0.00075512804 -0.0014476797 0.0009064254 -0.00017319231 0.000355973 -0.00020330319 0.0010525736 5.8645914e-05 -0.00051380566 0.0007037418 0.0003238292 0.0002755201 0.0003782174 0.001640096 0.000561783 -0.00041022457 0.0011233763 -0.0013229443 -0.001004034 -0.0008674709 0.0015428077 0.00027377505 0.00053756894 0.0012779325 -0.0009933003 -0.0014106578 -0.000850975 -0.001102345 -0.00046178408 0.0015343358 0.0011575159 -0.0013304689 -9.469651e-06 -0.00023352583 -0.0008277343 -0.0015691362 0.0011671613 -0.0009187718 0.0013946067 -0.0010193164 -0.0010118091 0.0006126854 0.00027084717 -0.0012679696 -0.0007562353 0.0008114104 -0.00092550623 -0.0004001169 -0.0011419577 0.00019253197 0.0013993001 0.0013520851 0.0001875322 0.0012509472 -0.0009753515 0.00097018434 0.0009304579 -1.1453571e-05 5.214838e-05 4.3302538e-05 -0.0015882165 -0.0015371662 -0.00079639046 6.162494e-05 0.0006048914 0.0012129861 -0.0010992317 -2.3300277e-05 -0.00039091747 0.0012615436 0.0005751663 0.0011931425 -0.0015772408 -0.0014714643 -0.0014566678 -0.0007705185 0.0004472097 0.0005885153 0.00093000225 0.0010515533 -0.00024003476 -0.00015452602 -0.0011354208 0.0006845665 -0.001192885 0.0003715723 -0.001595997 0.0009063523 -0.0010303026 -0.0010106892 -0.0013061484 -0.00034878257 0.00096369936 9.2178976e-05 -0.0004575639 -0.00016455786 -0.0014327175 0.0015901381 0.0009283848 0.00041621894 -0.0011803317 -0.00033391186 -0.0012837378 -0.0013279817 0.0014850625 0.0016337776 0.00091278786 0.0014648765 0.00035352106 -0.001123512 -0.0008926904 -0.00060886604 0.0010062167 0.00021317427 -0.0010850716 0.00094623887 0.0003643735 -0.0015772883 -0.0012301027 0.0004880073 -0.0014961704 0.001527421 0.00020690648 0.0003946759 0.0008261279 -0.0011145502 -9.619597e-05 -0.0015724659 0.0013754362 0.0015469928 -0.0014713701 -0.0003896308 -0.0008068611 0.00157143 0.00040314114 -0.0013391887 -0.0013853596 -3.5215344e-06 0.0013877441 -0.0016148136 0.00033521937 -0.00034577888 0.0009950452 0.00074513996 0.00018882936 -0.0008921736 0.00036409218 0.0014454117 0.0012814555 -0.001401703 0.00083133957 0.0004983964 0.00057096285 0.00091575645 0.001535687 -0.0004999573 0.0014359371 -0.0003123029 -0.00011111842 0.0012456178 0.0016588988 0.00161583 -0.0015341082 -0.00034200493 -0.0007282144 -0.00080428435 -0.0008928853 0.0015093861 -0.00023687819 -0.0002704141 -0.0011452292 0.00066912343 -0.0014049019 0.0015936157 0.0007045206 0.00021578182 -0.0011562397 -0.0012596478 0.0008678525 -0.0010575964 -0.0016046859 0.0016106787 0.0009235696 -0.0010953394 -0.001101131 0.0015810753 -0.00025481987 0.0009810163 -0.0007986126 -0.0015247335 -0.0015654035 -0.000584923 0.0008760143 0.0005831476 -0.00014582655 0.00033230608 -0.00047895891 -0.0012070034 -0.00068129424 0.0007765234 -0.0010478814 -0.0008801834 0.00083666085 -0.00037853958 -0.0003505081 0.00083840045 0.0008475527 0.001437679 0.00078247633 0.0014064551 -0.0008426344 -0.001213971 -0.001233159 0.0001011194 0.0008378932 0.0007394129 -0.0015390046 -0.00025395644 -0.001539253 -0.0015639006 -0.00013935355 0.0006302424 0.0010954806 -0.0014623323 0.0007893143 0.0009558914 0.0004322334 -0.0006874934 0.0008164312 -0.00061587896 -0.00045419426 -0.00063657196 0.0013540912 -0.00021306718 -0.00022160876 -8.760513e-05 -0.00086075824 0.001004663 -0.0014634595 0.0011587726 0.0013230753 -0.0016167111 -0.0015217762 0.0006402611 -0.000145594 0.0013283108 -0.00057650765 0.0012143418 -0.0012482399 -0.0012871963 -0.00083277276
ranveer -0.00085741235 0.0009805954 -0.00011088396 0.00028102697 -0.0014856037 0.00040996383 -0.00059075904 0.000690873 -0.0011609016 0.0014039412 0.00054302654 0.0012940203 -0.00042383667 -0.00076190656 -0.00082510815 0.0012753049 -0.0005807316 0.0010354174 -0.0015064974 -0.001447286 -0.0003275052 0.0016141423 7.3415984e-05 0.00051966397 0.0005713171 -0.000576228 -0.000105288265 0.00031842536 -0.0009980798 0.00054777385 0.0008957513 0.00097410026 -0.0015618127 0.00033148588 0.0001822019 -0.0007651859 0.0006297014 -0.000308663 -0.0011024149 -0.0016201036 0.0010983438 -0.0009844955 0.0006158681 -0.00089808984 -0.000646515 0.0012979319 0.0012832413 -0.0010753064 7.669937e-05 -0.00020938374 -0.0006667216 -0.00067741267 0.00021389352 -3.9800423e-05 -0.000103680264 -7.651594e-06 1.02031e-05 -0.0014103244 -0.0016016584 -0.00055385 0.0010032039 -0.0011063833 0.0014673668 -0.0012178158 -0.00030738197 0.00155135 -0.0009796793 -0.0012153595 4.5586286e-05 7.7395765e-05 -0.0008232157 -0.0014469228 0.0006428244 0.0010104737 -0.0012595297 0.0007962303 0.00011295939 0.0003449329 0.0011243102 0.00085959455 0.00060680346 0.00048334448 0.0015464524 0.00053401774 -0.0004774192 -0.00010021175 0.00028119964 0.0010111915 -0.0010260812 0.001016407 -0.00029651573 0.0012255608 2.4856132e-05 -0.0006937356 -0.00039600374 0.0012138324 -0.0014206548 -0.0016674564 -0.00071344397 0.00014986133 -0.0013172606 -0.0009838593 0.0013153262 -0.0012834078 0.001652372 0.0015903478 0.0007910525 0.0014750245 -0.00067853206 0.000581946 0.001061808 -0.001161236 -0.001158273 0.00027469455 -0.0013129701 0.0006480825 -0.0013661578 0.0002166165 -0.00051093905 -0.0014280932 -0.0016421992 -0.0010567348 -0.0005257198 -3.6465837e-05 -0.00073879655 0.00051573524 0.0012289871 -7.6261975e-05 0.0012432724 0.00035139086 -0.00032547401 -0.0006557181 -6.927108e-05 -0.0011925035 -0.0015186658 -0.00065219146 0.00025287215 -0.00053535594 0.0006987634 -0.0014285607 -0.00057104253 -0.00134063 0.0010181413 0.00058318826 0.00040366 0.0015139792 0.00025245285 0.0014663966 -0.000705718 0.00040968458 -0.0010046101 -0.0011492217 0.0015317682 -0.0008227641 0.00037312496 -0.001347706 0.0006518225 -0.00060161925 0.0012661732 0.0014129005 -0.001273803 -0.0012444156 -0.00019310847 0.0010631589 0.00068829616 0.0009267396 0.0005656538 0.0010907698 -0.001224568 -0.00043806806 -0.0010461928 0.001514099 0.00052134006 -0.00018413109 0.00028900156 0.0014600025 -0.00018108803 -0.0009270742 -0.00090176077 -7.883995e-05 0.0013347432 -0.0002885876 0.0005309147 0.0003633779 0.00062803074 0.0001803548 0.0003521318 0.00033048363 0.0014033571 0.0003342511 0.0014629642 -0.0012246956 -0.0014035701 0.0007523797 0.00051174004 -0.001218327 -0.0011320547 0.0009858314 0.0015178529 -0.0007575863 -0.0013504839 0.0016637883 -0.0002683759 0.0007667474 -0.00024688104 0.0013207186 -0.001330113 2.2742627e-06 -0.00048782775 0.00054994 -0.00074339483 0.00022738763 -0.0006740314 -0.0012564035 -0.0009714228 0.00013902724 -0.0013631918 -0.00076580106 -0.0015622131 0.00064561516 -0.0002068685 0.00016753701 -0.0004984117 -0.001185396 -0.00028788875 -0.00032867317 -0.00075424224 0.00027028576 -0.00052625185 -0.00057070307 -0.000981299 0.00024244118 0.0011005775 0.00077051815 -0.00041548835 0.00030820468 0.0007030616 -0.0014095979 -0.0007172242 -0.00067103305 -7.197296e-05 -0.00017073772 -0.00073645246 0.0007599718 0.00075561414 0.0005590266 -0.0004956726 -0.00029186002 -0.0008348085 -0.0003226324 -0.00030703892 -0.0004471364 -0.000783535 -0.001197983 -0.0005889922 0.00045556013 0.00036364855 0.0015367371 -0.0014406019 0.00020053855 -0.0015263148 0.0016573357 0.001360233 0.000958093 -0.0009890551 -0.0016090674 0.0014641258 -0.00064952223 0.0007769282 -0.0014748059 -0.00040440544 -0.0002811186 0.00010481243 0.00021355161 -0.0012329095 0.00047614 -0.0012697105 -0.00017101745 0.001611388 -0.0013149236 -8.699383e-05 -0.0011867023 -0.0016603312 -0.00022116008 -0.0015437786 0.0016245588 -6.2257895e-05 0.0010863659 0.00051247986 -0.0012183961 0.00062065106 -0.0008544586 -0.0012776761 -0.00044628294 0.00029974405 0.0016301292 -0.0015454295 0.00017250166 -0.001279722 -0.0006764951
wedding 0.00043033712 -0.0010418877 -0.0008747537 -0.0006652451 0.00011786956 0.0013839599 -0.0013273053 -0.0009695873 0.0013193602 0.00012271035 0.0013899817 -0.00094186014 0.0010597958 0.0014812374 -0.0010836103 -0.0015176161 -0.0006834529 -3.312962e-05 2.0644471e-05 3.166894e-05 -0.0012189903 2.1062813e-05 -0.0013949242 0.0008559196 0.0013568617 -0.0011089494 0.00048320007 -0.0010628437 0.0002896679 0.0006828569 -0.00021040358 0.0015045459 -2.2647942e-05 0.00087797595 -0.0016039566 -0.0009581655 -1.0373232e-06 -0.0013775934 0.00036498887 -0.0015031316 0.0006115565 -0.0014872225 -0.00049034733 -0.00033542974 -0.00097357726 0.0016435072 -0.00062988687 0.0013298248 -0.0015437006 -0.0009862658 0.00022820199 -0.00045120428 0.00012760512 0.0012975176 0.0014735613 -0.0006723683 -0.0004420889 -0.0010854568 -0.0008828833 -0.000833599 0.0012407281 0.00080787 -0.001430362 0.0011902782 0.0002223356 -0.0003339304 0.000990316 0.0010937024 -0.0013274157 0.00037155353 -0.00028353443 0.000113114394 -0.0012451288 0.0010124737 0.00078348326 0.0009470938 0.0006469353 -0.0011315891 0.00042349516 -0.00020552217 -0.00028294892 -2.4472733e-05 -0.00055368175 -0.0015566981 -0.00029090894 0.0010564416 -0.000107951935 0.0006043069 0.00062310684 -0.0008942003 0.0016636719 0.0013495703 0.00076152344 -0.00031068458 0.00018305953 -0.0005207977 0.0016386656 -0.0015579886 -0.0006225374 0.00071824976 0.00076879514 0.00070011354 -0.00058380654 -0.00050745334 -0.00069622294 -0.00048722344 0.0015670137 -0.0007007885 -0.0015011859 1.7031914e-05 0.0010656586 -0.00017975112 0.00028285905 0.00024688267 -0.00023835889 0.0015974934 0.00090082706 -0.0011290348 0.0004933473 -0.00045658238 -0.00068073237 -3.6075515e-05 0.0006721908 0.00095804327 0.0006894624 0.00041825944 -0.0010267245 -0.001629634 0.001326442 0.0009935672 -0.00022103029 0.00086800696 -0.0004872002 6.2244226e-06 0.001347202 -0.00059154903 -0.00041838794 0.00035206744 -0.001618653 0.00032482218 -0.0015221399 -0.0010147964 -0.0013758909 0.0005307607 0.0011752778 0.0013416631 7.8628516e-05 0.0005106321 0.0015786638 -0.0013746945 0.001497132 0.00018466759 -0.001329068 -0.0012601949 -0.0011717776 0.0016626237 -0.0010160231 0.00038603847 0.0011221793 0.0001906112 0.0007600769 -0.00039947737 -0.0005105824 0.00018533751 -0.0013590086 0.0014891265 0.00096676656 -0.0015543852 -0.0011675463 -0.00024556747 -0.00015585062 -0.00039407643 0.00047965406 -0.0005950126 0.0012722871 0.00076389656 -0.0009591936 0.0015560902 0.0006179871 -0.0010111881 0.0009254663 -0.0015384742 0.0015056463 -0.0001500763 -0.0016107208 -0.0014272116 0.0009072872 0.000925125 0.0010401872 -0.0008538244 0.00072397 -0.00047439354 -0.000922202 0.0010070994 -0.0013320313 0.0011302228 0.00074231764 -0.0015768822 0.0008251733 -0.0007507213 0.00036075508 0.000103979575 8.255653e-05 0.0016094911 -0.000523145 0.00019661567 -0.00018454889 -0.0009031737 0.000242655 -2.6553022e-05 -0.00019185609 -0.0012121634 0.0006328552 -0.0010048471 0.0016230355 -0.0004413787 0.0007676401 3.4191024e-05 0.0009547631 0.0003800056 0.0010555842 0.00052684086 -0.00079217216 7.570586e-05 0.00031972353 -0.0011528889 0.0008676282 -0.0005772632 -0.0006335984 -0.00073133723 0.0014794228 -0.00074239174 0.0014141245 0.0004572223 -0.00010348269 -0.0011505826 -0.00016119848 -0.0002934468 -0.00024162674 -0.0006872207 -0.0004919458 -0.00015946463 -0.00041766145 -0.0009346431 -0.0011064339 0.0012535171 -0.00028295262 0.0014199528 0.0007333225 0.0007608704 0.0013308101 0.0008841321 0.0005289057 0.0014121368 8.324664e-05 -0.0007733096 -0.000889982 -0.00081050454 0.00019322628 -0.0006703251 0.00027229724 0.0014988321 0.0005727996 -0.00029141802 0.0013600541 -0.00066546013 -0.00014388718 -0.0009649953 -0.00051946164 0.001172452 0.00097236596 0.0005988812 0.0012795196 -0.0010834167 0.0013083429 0.0015057779 -0.00025610768 0.00024972126 0.0010520766 -0.00071533694 -0.0016507071 -1.8786663e-05 -0.0009373555 0.0009960688 0.0004899643 -0.0011110684 0.0016557412 -0.0001048542 0.0012756542 -0.001289423 0.00036615808 -0.0011430716 0.0015589206 0.00044189778 8.3008694e-05 0.00062827155 0.0007923709 0.00125565 -0.0002070248 -0.00065267034
the 0.0004891797 -0.00019013492 0.0012158123 0.0008869178 -0.0010424332 -0.00045667973 -0.0015098484 0.00016601302 -0.0013277142 -0.0011775801 -0.0015895701 0.0007519152 -0.0009851312 -0.0009568132 0.00031691854 -0.0014623781 -1.7556606e-05 -0.0015485829 0.0006652079 0.00030397388 0.0008172625 0.0011336447 -0.0009906753 -0.001142073 -0.0014818887 0.0012674598 -0.0011807034 0.0007686569 -0.0015426464 -0.0008398192 0.00050266716 -0.001079859 0.0009792413 0.0014960823 0.0007339845 0.0012596478 -0.00163746 -0.00038258327 0.0014188545 0.00029988718 -0.00068682333 0.0016458143 0.0012551921 -0.00044824806 -0.0015741833 -0.001007025 0.0014002651 0.0010695809 -0.00018698406 -0.00012976803 -0.001262232 -0.00024792273 -0.0011823549 -0.0002148631 -0.0014962461 0.0014526759 0.00024037113 -7.050157e-05 -0.00097361405 0.00013599596 -0.0005224703 0.0008102422 -0.00071736565 0.00051269174 0.0010859325 -0.0013038489 0.00052672625 0.001610174 -0.0010345071 0.0010300011 -0.000115332216 -0.001366838 -0.0008166603 0.00027977215 -0.0004223956 0.00020025119 -0.0012039824 -0.00043782993 -0.0012340377 0.0014516729 -0.00069188327 0.0006950609 -0.00081794325 0.0016778032 0.0008460557 -0.001328 -0.0005272651 0.00013817791 0.0015311247 0.00049847085 0.000643122 0.0014902353 -0.0007037836 -0.00114911 0.0012951061 -9.401013e-05 0.0015312356 -0.00055767543 6.0324943e-05 -0.0011779934 -0.0006537966 -1.3297953e-05 -0.0009652459 0.00048130052 -0.0012994072 0.0006107661 -0.00042930176 0.00038325295 -8.048686e-05 -0.0008969469 0.00024737802 0.00024730715 0.0016119181 0.0002990046 0.0015472887 0.00016362738 -0.00096208544 -0.00034946084 4.7329388e-05 0.0012907701 0.0008694316 0.0015493039 0.0016436324 0.0016287323 -0.0015702052 -0.0014554576 -0.00011597779 -0.0013920469 -0.0013203326 0.000767191 -0.001408622 0.0015816473 -0.00014816025 5.70026e-05 0.0011606392 0.0012836525 -0.0001304326 0.00052630645 -0.00085575366 0.00041070575 0.0012620849 -0.0009946532 -0.000542949 -0.001031547 -0.0007782853 0.0011250249 -0.00025952628 -0.0013740136 -0.00018679266 -0.00026263 6.971118e-05 0.001486852 -0.0003333242 0.0014198041 0.0009700457 0.00020130117 5.538802e-05 0.0012026887 -0.0012280756 -0.00058940833 -0.0002688393 -0.00037573147 -2.466207e-05 0.00043016608 -0.000640911 0.00084508193 -0.0010910999 0.0012324384 0.0014803509 0.00022396422 0.0011778168 -0.0010806711 -0.0009022612 0.00056765083 -0.0013189153 7.3895724e-05 -0.0013862044 -0.0008693724 0.0007398652 0.0013455432 0.0011099944 0.0009748126 -0.00027578213 0.0002701197 4.021865e-05 0.0006453711 0.00049579784 -0.00040371178 -0.00031759578 -0.00079376175 0.0015396668 -0.0016164009 0.0002713096 0.0016074069 -0.00042897137 0.0012957564 0.0009019301 0.0013862554 -0.00040075622 -0.00081475044 -0.00019818933 0.00058361184 0.001488673 0.00022145457 -0.0013109993 -0.0015410068 -0.00080780673 -0.0011090384 0.0006828966 -0.00041890235 -0.00093789474 -0.0013228885 -0.0011065977 0.0007833994 -0.0015410543 0.0015733616 0.0006818074 0.00014018679 0.0012088278 0.0012958398 -0.0016199978 -0.00012378416 0.0008872609 0.0012868373 -0.00060650875 -0.0014651824 0.0015430518 0.00091822486 0.00025584936 0.0008053284 -0.0007620416 -0.0010106997 0.0013927742 0.0008557453 0.0014359603 0.0005558857 -0.0013725605 0.0006505946 0.0012751692 0.000983417 -0.0011897007 -0.0015372705 0.001348096 -7.190931e-05 -0.00015388842 0.001567149 -0.00090173684 -0.0015172353 -0.001649764 0.00039754287 0.0016540922 0.0002603933 -0.0012925682 -0.0005947257 -0.00035875713 0.0013009016 -0.00074008986 -0.00059948437 0.001415121 0.0005922846 0.0012236724 0.001645747 -0.001072545 0.0013040818 0.0016373302 0.0013472477 -0.00020787699 -0.001581111 -0.0013218357 -0.0013052493 -0.0004890817 0.0009446782 -0.00045770645 0.00014621779 0.0005399327 -0.0011492546 -3.835947e-05 -0.0009601318 0.00011456553 -0.0009211481 -0.0012369216 -0.0015666664 0.0014400173 9.4087925e-05 -0.00043870634 -0.0010259642 -0.00092880253 0.0004537778 -0.001011566 0.0010451182 -0.0001897061 0.001005739 -0.00021156039 7.29914e-05 0.001603889 -7.0833994e-05 -0.00071907253 0.0014471759 -0.00021305273 0.0002639101
chopra 4.5267665e-05 0.0007906341 0.0013092852 0.0010025293 -0.0015242562 0.0007162055 -7.628886e-05 -3.237484e-05 0.0007544773 -0.0014412814 0.0016126515 0.0014277267 -0.0004209588 0.00089280575 0.0008541596 -0.0010177838 -0.0010657654 -0.00017880526 -0.0012218795 -0.0005622032 0.0014459002 0.0011781296 -0.0015241989 -0.00106525 -0.00094037916 -0.00025867182 -6.357623e-05 -0.00010466573 -7.5703065e-05 0.00090543827 -0.0009576316 0.00091145054 0.0006577199 -0.0010608834 0.0008285232 -5.580399e-05 -0.0008076037 -0.001682649 0.0013403035 -0.0015718886 -0.0009095374 0.00023659549 0.001091649 0.0011595124 -0.00059816084 -0.0004227467 0.0014264446 -5.772661e-05 -0.00046287297 0.00015199876 -0.00010468595 0.0010763746 -0.0009042455 7.758533e-05 0.00069802516 0.0013211736 0.00092005037 -0.0015594002 -0.0010788853 -0.0013758956 -9.051672e-05 -0.00035706483 -0.00024930085 -0.0015038125 -0.0005159552 0.0010533894 -0.0006308031 -0.0011715569 0.0008219058 -0.00024935463 -0.0008628853 0.0012957325 -0.0009771365 0.00163676 0.0014696226 0.001364771 -0.000381526 0.0013378054 0.00039233023 0.0012637199 -0.0008603085 0.0015829577 -0.0011689762 -0.0011635041 -0.0012775359 0.0007084396 -0.0015020225 -0.0012043815 5.8029473e-06 0.0013895947 -0.00038420738 -0.00055398705 0.0008979089 -0.0016550652 -0.0013431128 -0.00011923207 2.2035806e-06 -0.000794702 -0.0006719233 0.00042049156 -0.00094146765 -0.0009021935 -0.0008907299 0.00096122635 -0.0012418012 0.00021967429 -0.0004907054 0.0002669033 0.0014283888 0.0011819428 -0.00046783345 -7.9458216e-05 0.0005965619 -0.00030406594 0.00042759746 -6.4882355e-05 -0.0001464178 -0.0004091297 0.0012837921 -0.0016811804 -0.0014830647 0.00020829693 0.00024839022 0.00038373482 0.0016090698 -0.000746543 -0.00019694155 -0.00095437537 0.00036003193 -0.000942358 -0.001400815 0.0009929497 0.00034158485 0.0013082739 -0.00012272247 -0.0012325579 0.0008138312 0.0014835857 -0.0006490845 -0.0012187511 0.0011004425 6.663648e-05 0.0013948332 0.0010835218 0.0004816276 -2.924958e-05 -0.00087549124 -0.00024550862 -0.0014554437 0.00027900448 0.00074451225 0.00021222983 0.0009991791 -0.0013989081 -0.0012428211 0.00032968618 9.082882e-05 -0.00030033913 -8.478635e-05 0.0003891574 0.0010503165 0.0011336682 -0.0006911892 0.0011104777 -0.0014427456 -9.706401e-05 0.00029263643 0.0012321076 -0.0014412447 0.0007540201 0.00025802475 0.0009110756 -0.00026431144 0.0012841101 0.0003415261 -0.0002266654 0.0010158444 -0.0013149811 -0.00094108767 -0.00085230905 -0.0010036032 -0.001423943 0.0013511446 -0.0014961691 -0.0006501288 0.0010447506 -2.0151694e-05 -0.00019918999 0.00037958194 0.0014482529 -0.0010313897 0.001370221 -0.0016620825 -0.0009103513 -0.001266146 -0.0016447065 -0.0010575155 -0.001493226 0.00015980664 -0.00062102097 -7.055972e-05 -0.00033198044 0.0009338783 0.0016118409 -0.0007661274 0.0014145189 0.0010003201 -7.757657e-05 -0.0009737021 0.00083413074 0.0011285479 0.0013419262 0.0004172172 -0.0009753147 0.00054927764 -0.0003574334 0.00068343076 -0.0012963183 0.0009962954 -0.0011944108 0.0006426562 0.00046164935 0.0016601701 -0.0013247207 -0.0013296173 -0.00011034382 0.00081848813 0.0006257747 -0.0016445494 0.00082674366 -0.00047172193 0.0015919281 0.0012986187 -0.0014960581 0.000684859 -0.0013463286 0.0014748861 0.0014816348 0.0011514206 0.00017537769 -0.0008554967 0.00016965366 -0.0008055327 -0.0016260155 -0.0013200907 -0.0008335392 0.00024412225 0.0009855158 -0.0011658428 -0.00079987687 0.00119572 0.0009148592 0.00020053597 0.0013323979 -0.0009568169 0.00020004463 -0.0013430824 -0.00044648806 -0.0003416044 -0.00061500265 -0.0006368668 0.0012296739 -0.0015511453 -0.0008340678 0.00022939539 -0.0009370193 0.0014862815 0.0004386124 -0.0011345512 0.00040110163 0.0015314855 0.0016028542 0.00054896245 0.0014708736 -0.0002402192 0.0016137693 0.0010284074 -0.0011107755 0.00030956048 0.0010393363 0.0015342168 0.0004993435 0.0006291598 0.0014220737 0.0007522216 -0.0012386033 -0.00144448 -0.00022648399 -0.0003370341 -0.00070416724 0.00043706986 -0.0013775566 0.0013620002 0.00088447 0.001417937 -0.0009454729 -0.0002657059 0.001330471 0.00059433695 -0.0011891115
sharma -0.0013354919 -4.9216007e-05 0.0014429215 -0.0016094771 -0.0013208826 -3.5902456e-05 -0.00071816036 0.00051655015 0.00046065624 -0.0015895461 0.0012766656 0.00079000107 0.0011038379 0.0013913101 0.0010127192 0.0015477443 -0.00017421252 0.0013533415 0.00066247256 0.0013124556 -0.00078509987 -0.00016146639 0.00028296665 -0.0015523405 -0.0016158829 -0.0010192639 0.0012426516 -0.0001436905 -1.3319926e-05 0.0010001651 -0.00045087418 0.0013216139 0.0008664113 0.0014456859 -0.00091823173 -0.0014835497 -0.00074498955 -0.0016485527 0.00021037183 -0.0003099737 0.0011240814 0.0012608758 -0.00031001912 -0.001174354 0.001145675 -0.0010242248 0.00095081463 -0.00080844987 0.00043218298 0.00047709807 0.00084919663 0.00091499917 -8.2023005e-05 0.0010914931 0.0011074069 -0.00053923053 0.0009915617 -6.1898216e-05 0.00086609414 -0.00014168349 -0.0011261388 0.0011767142 1.722813e-05 0.00015412424 0.0008731756 -0.001327993 -0.0008060684 -0.0014654578 -5.893533e-05 -0.0005122086 -0.0015447327 -0.0015350755 0.0004966887 -0.00042173488 0.0006825947 -0.0002192485 -0.00083677226 -0.00123642 -0.0008754183 -0.00039007165 -0.0012909705 -0.00016230797 -6.7547335e-05 0.0012266126 -0.0010195952 -0.000434984 -0.0010450783 0.0008451982 -0.0015405188 -0.00015857794 -0.00059528253 0.00033718883 -0.0013990575 0.00010425762 0.00028442362 0.00039604993 -0.00097461604 -0.00054681505 0.00142329 0.0014801401 0.00087790383 0.0008701789 0.0012211645 -0.0011163168 -0.0008057525 -0.00039118202 9.480385e-05 -0.0015198832 0.00017211921 0.000551503 0.0014373808 -0.0009943449 0.0014220974 -0.00073561387 -0.0004054628 0.0012320986 0.0007358569 5.951288e-05 -0.00014149284 -0.0010008137 0.00096271734 0.0011753305 -0.0015674077 0.0006054623 0.0015679044 0.0016673121 0.00085934927 -0.0011060263 -5.853909e-05 -0.0016544588 -0.0002864589 -8.983204e-05 -0.00036485036 0.00013380202 -0.00063891907 -0.0012346705 0.0002894682 0.00094774785 -0.0013316139 -0.0005183848 -0.0008871042 -0.0015073421 0.0012724289 -1.8539875e-05 -0.0010021784 0.0012809098 -0.00093754526 0.00088445575 -0.000639088 -0.0012296222 -0.0005682326 0.0013881716 -0.0010807238 0.0011225253 0.0013641322 -0.0006667709 -0.0013429413 -0.0005191531 0.00086260884 -0.001092742 0.00017763264 -0.0016039431 -0.0013145241 0.00065707753 -0.0016009508 -0.0002850165 0.0016496461 -0.0009021841 -0.0012905933 0.00020947418 0.00031320192 0.0005725992 0.0010823563 0.00048063422 -9.6263735e-05 -0.0006242776 0.0014810475 -0.0009535872 0.0015333089 -0.0014015632 -0.0013655929 0.00060894643 -0.00074512523 0.0002307707 0.0016489928 0.0006698443 -0.00013136244 -0.0013367081 0.0013275371 0.0002489493 0.0014742617 -0.0004664596 -0.00024277616 9.463524e-05 -0.000626904 0.00020087311 -0.00027334096 0.0010595844 -0.0013815621 0.00040049705 0.0014674766 0.0005003658 0.0012249058 0.00043663796 -4.002623e-05 -0.0008154977 -0.000946295 -0.0009439571 -0.0001834191 -1.6028045e-05 -0.00037712796 0.0003312506 -0.0005924844 -0.00017849273 0.00080903474 -2.4757546e-05 0.0013573368 -0.00061840157 -0.0011239252 -0.0009962687 0.00020400001 0.0011302195 -0.0003627143 -0.001413636 0.0005870482 -0.00028503465 -0.0010153087 0.0016037612 -0.0010722637 0.000116223004 -0.0013889434 0.001181772 0.0015621546 0.0004089009 -0.00033652832 -0.0009970096 -0.00024673072 -0.0014343992 0.00077851844 0.0007860164 0.0003900348 -0.0015904332 -0.0011642412 -0.0011482387 -0.0006482067 0.0015446966 -0.001013178 0.0015739703 -0.0011596163 0.0007903864 0.0010660454 0.0011514035 -0.00024435035 -0.00052376493 0.00053619477 0.0015063147 0.0004953563 0.0001497825 0.00043247602 -0.001254312 0.0011430604 -0.0004798901 0.0005902317 -0.00097632105 0.0009438816 0.0013351141 -0.0002119205 -0.0010030384 -0.0010667404 0.00053829217 -0.00015165376 0.0014315542 0.0010150999 0.0007640566 -0.0013833945 -0.0011160258 0.0007843545 0.00012372629 0.0005534207 -0.0009596884 -0.000701371 -0.00044262366 -0.00078085344 -0.0006890794 0.001219092 -0.00025237264 -3.352897e-05 -0.0007800254 3.1881496e-05 -0.0011582226 -0.00028125112 -0.0004977023 0.000994215 0.0011286048 0.000988479 -0.00019497756 0.00035490913 0.0015130542 -0.0015294928 0.0012576359
weddings -0.00016506184 0.000815469 0.0009088011 -3.2523596e-05 0.0014930523 -3.3827677e-05 -0.00085094216 0.0005053734 -0.00087118184 0.0013558599 -0.0007593675 -0.0005666181 -0.0005161687 -0.0015980738 0.0014651086 1.088582e-05 -0.00074449513 -0.0015880452 0.00088068395 0.0010928479 -0.0011688371 0.0010561463 -0.00051656814 0.0013268746 -0.0014247923 0.00041672462 0.00017874729 -0.00038721765 -0.0008781976 0.00051842513 -0.0014275694 0.0011648204 0.0010695838 0.001643848 0.0013929491 -0.0004667642 -0.0015850584 0.001630573 0.0003969282 2.898808e-05 -0.001661067 -0.001422247 0.0008793265 0.00053729874 -0.0005988144 -0.00086859695 -0.00086724095 0.0012807938 -0.000942801 0.0013069503 5.6660625e-05 0.0013100484 0.0010056967 0.0007581369 -0.0005495709 0.0013683572 0.000983318 -0.00095693604 -0.00018680023 -0.0006577181 -0.0008996413 -0.00017657559 0.000912616 0.0015028926 -0.00065353664 0.0012297436 -0.00091095065 -0.00057337835 0.0014260559 0.0014009732 0.0014966236 0.00027571642 0.00059836474 0.00080264907 -0.0010151007 0.0013976347 0.00080148596 -0.0005182902 0.0013822084 0.0007090501 -0.0009606884 -0.001343406 0.00016149292 0.001457311 0.00036322325 0.0004034054 -0.0010258984 0.000541475 0.0003249485 3.3967e-05 -0.0015438338 -0.001613497 0.00019508075 0.001415459 -0.0013898117 6.939102e-05 -0.0013167071 0.001240021 0.0004213327 -0.0011890235 -0.0012852992 0.00053023576 -0.0012234001 0.0007011652 -0.0011988245 -0.0011267458 0.0011771071 7.84702e-05 0.00046261764 -9.126766e-05 -0.0010950209 0.0015455281 -0.00019593128 0.0010816932 -0.0004617426 -0.0002671856 0.00077528635 -0.0009464172 -0.00061091565 0.0012129408 0.00061533094 -0.0012960852 0.0011746048 -5.8098867e-05 -0.0016059001 -0.0010092633 0.0005479828 -0.0008895566 0.0013471197 -0.00089847343 0.0011103218 0.0008649441 0.00035958158 -0.001295737 0.00046453634 -0.0008584429 0.0016118321 -0.0011854365 0.00017334828 -0.0005824392 -0.001242596 0.0009932022 0.00075410074 -0.0013671671 9.8852324e-05 -0.0015548992 0.00014403845 0.00092036254 0.0007591797 -0.0012538952 -0.0003169723 -0.0011402806 0.00029219652 0.00037664088 0.0009625841 0.0007972639 -0.000602298 -0.00018884154 0.0015998445 -0.00025541338 -0.0010315684 0.0016302539 0.00019792431 0.0014595541 -0.00082950835 -0.0008333393 0.0005984022 -0.0004905026 -0.0010801452 -0.00035961287 -0.0015137909 -0.0009235509 0.0010437871 -0.0012566411 -0.0016634146 -0.0010032622 0.00020678116 -0.00034412055 0.0013353857 -0.00012835528 -1.8722198e-05 0.00019775591 0.00040340557 0.0006703756 -5.07283e-05 0.00019917847 -0.0010411453 0.00089046586 0.00029296573 0.000689021 -7.7384386e-05 -0.0015097231 -0.00018771319 -0.00069521216 0.0011627192 -0.0010622018 0.00034799078 0.00027217838 -0.00037564983 0.0007014576 -0.0013446793 0.0006712597 -0.0013426987 0.0013950861 -0.0007751052 0.0010475238 0.0005365799 0.000579435 -0.0015034103 -0.0015766039 0.0013984878 -0.000110362715 -4.88878e-05 -0.0008548138 -0.00019402555 0.00017907463 0.0011675671 0.0007725538 -0.0012389703 -0.0005147363 -0.0014961875 0.0006538661 -0.0001657831 -0.0015840536 0.0012388912 -0.00025261904 -0.00051956665 -0.0008298842 -0.00059901166 0.001646717 -0.0015583965 -0.00030719402 -0.00037247693 0.0003366321 -0.0015590232 0.0014684974 -0.00040305324 0.00029577152 0.00049102627 0.00087214465 0.0015378274 -4.835718e-05 0.0010386686 0.0008692191 -0.000117762684 -0.0005128013 -0.0013057926 -0.00043078192 0.0012512301 -0.00042348675 0.0007880846 0.0012435518 -1.2786609e-05 0.0006503667 -0.00044738626 0.000709479 0.00073020265 0.0014514098 0.00030815363 0.0002689199 -0.00032541162 -0.00095501 -0.0014425913 -0.00084223074 -0.0012404498 0.000105539664 -0.0009604083 0.0007785602 -0.00060576166 -0.0006978796 0.00070186536 -0.00054835255 -0.001130597 -0.001043446 -0.0016596088 0.00072378485 0.0012241161 -0.0015262603 0.0016469574 0.0011421976 -7.3028794e-05 0.0013599936 0.0006771253 -0.0009526223 0.00093756476 -0.0010636211 -0.0005612766 -0.0013902178 -0.00065963756 0.00064688205 0.00057202874 0.0012724664 -0.0014344291 0.0003750464 -0.00014841632 -0.00032652306 0.0011279694 0.0007930424 0.0009841365 0.0009053698
jonas 0.0013764944 -0.00087136537 0.0008149799 0.00032487 0.0005989076 0.0012521769 -0.0008505476 5.3511543e-05 0.0016573519 -0.0006932523 -0.00090080046 -0.00073685567 0.00018637883 -0.0013706875 -0.0011444718 0.0014526753 -0.0013391045 -0.0009149019 -0.00078628224 -0.0014911839 -0.0007350478 0.0008757145 0.0008936583 0.0011321434 -0.0012082962 -0.00090499583 0.000922812 0.00052033825 -0.0012715643 0.001199585 -0.001426831 -0.000466936 0.0013976721 0.0012572386 0.0011463086 -0.00086561765 -0.00071852846 -0.00078944396 0.0010188642 -0.0007413905 0.0012586652 -0.0004262451 0.0005158461 0.00091988547 -0.0013642808 0.0015775932 -0.001619655 0.0005462883 -0.0007685789 -0.0005096567 -0.0011190212 -0.00124461 5.9466576e-05 0.0013614091 0.0002025252 -0.0012602917 0.0013174833 -0.001414503 0.00021339308 -8.996097e-05 -0.001381176 0.0010917687 -0.0016188942 -0.001554145 -3.754574e-05 0.0008552258 -0.00016533007 0.0016177675 0.00016152009 0.000949777 -0.0006026137 0.00011757589 0.001098622 -0.00014742579 -0.00029656157 0.000113122485 -0.0007686629 0.00031989662 0.00039207147 -0.0005954124 0.001565904 -0.00063959154 0.00020556212 -5.051083e-06 0.0013271681 0.0012243384 -0.00014372396 0.00031212848 -0.0014447982 -0.0005759164 0.0014623383 0.0014931362 -0.0003439366 -0.00077303336 -0.00062510045 -0.0016116593 -0.0007837711 -0.0014638854 -0.0011474922 -0.00054462545 0.00044527423 -0.0008619694 -0.000663186 -0.0011789696 -0.0015515261 -0.0015600271 -0.00043619657 0.0015185301 -0.0008885577 0.001420627 0.001229553 0.0008858959 0.00028589187 0.0016580825 -0.0012295236 0.0009783703 0.00075488875 -0.0010837931 -0.0006005248 -0.00029424936 0.0011667467 -0.00038658467 -0.0010067233 0.0015609107 0.00031388106 0.00043038127 0.0015583305 -0.00051692995 -0.0009904326 0.001354584 0.0005566217 -0.0012116394 -0.0013747317 -0.0009687744 -9.731939e-05 -0.0014494312 -0.0014686771 0.0014421163 0.0008821687 -0.0014683739 0.0004144963 -0.00012357465 -0.0010960613 0.0002928963 -0.0015282845 0.0005234659 0.0011031332 -0.00031059913 -0.0011254563 -0.0007682539 -0.001420451 0.00089585956 -0.0015238058 0.0010356694 0.0013845417 -0.00083288894 -4.6410525e-05 0.00025562613 0.0002848876 0.0009947827 -0.00044834678 0.000853444 -0.00104832 -0.0009256883 -0.001055558 -0.0016306549 0.0016608917 -0.0013738698 0.0014505334 0.0006312266 -0.001591418 -0.00028864646 -0.0011223454 0.0016115644 0.00018173637 0.0009792333 0.00035244125 0.0013712373 0.0013198615 0.00045280432 -0.0013273489 0.0014892708 -0.0010542902 0.00049180933 -0.0005668902 0.0005434004 -0.0015948516 0.0010271444 0.0009976326 -0.00015375894 -0.00091005425 -0.00043507328 0.00021834022 0.00089507096 0.0014239973 0.00027041617 -0.0014344845 -0.0013903732 -0.00090171286 0.00030446541 -0.00021114582 0.0011958167 0.001398917 0.0013730336 -0.00027280557 0.001368088 -0.00048995094 -0.00013882863 0.0015191229 0.0013712981 -0.0010836413 -0.0011021778 0.00023707417 0.0016441711 -0.00021238707 0.0007566482 0.00096607214 -0.001249311 -0.0009091034 -0.001403951 0.0011917358 -0.0016004909 -4.166582e-05 0.00011168485 0.001141185 -6.654799e-06 0.0016830148 -0.000120850425 0.0010873087 -0.0016143135 -0.00025202398 -0.0015019187 0.0013416529 -0.0003847371 -0.0009977939 -0.0011646701 -0.0005769478 0.00034536366 -0.0013630138 0.0012195864 0.0008595687 0.0008740137 0.0012884561 0.0014856778 -0.00014568074 -0.0010457629 0.0012986349 -0.0011032475 -0.001131439 0.0013458821 0.0014096019 0.00012464511 0.00053808035 0.0004402168 0.0008088282 -2.635518e-05 0.0010970683 0.0015958312 -0.00054624904 0.0007509967 -0.0010333922 -0.0015174528 -1.8849236e-05 -0.001194013 -0.0007842198 -0.0003148533 0.0014416989 -0.00030203923 -0.00080379716 -0.0015459965 0.0011387474 0.0005462658 -0.0011295436 0.0007448693 0.0013913313 0.00082480465 -0.0005418167 0.0010930554 -0.0002674007 0.0008157808 -0.0012125507 -5.138826e-06 -0.000554531 0.00042687324 -0.00016757491 -0.0001742951 0.0003661434 0.001351428 0.0016667418 -0.0015702922 -0.00030786206 -0.0009345741 0.0014067978 0.00047317965 0.00068871403 0.00100248 -0.0006469274 -0.00074266765 0.0009568906 0.001472827
kapil -0.00013624188 -0.00082924834 0.00021228037 -0.00035574855 0.0015211253 0.0013911353 0.00078623113 -0.00010020757 -0.0014792251 0.00069380016 0.0014647765 0.000904811 -0.00074313325 -0.0014682444 -0.00020317806 0.00015237292 -0.0005928145 0.0011735088 -0.0010527424 -0.00061515433 0.00078457594 0.0014111086 -0.0013668987 0.0011083634 -0.00047966637 -0.0006503267 -0.0010520064 -0.00071700907 -0.00048518874 0.00011797288 -0.00059336267 0.0016116451 0.00033077423 0.0010318377 0.0014324805 0.00051471946 -0.0011044585 -0.0015379726 -0.0011028514 0.0010946533 -0.0014239966 -0.001383572 -4.3446897e-05 -0.0014262602 -0.00017742503 0.00043179272 -0.0016204816 0.0010585244 -0.0010898848 0.00027271057 0.0009043917 0.0007936837 -0.0013723547 0.0010822676 0.00022105138 -0.00042986037 -0.00025143474 -0.00055471377 0.00059459783 -0.00051008083 0.0007067129 -0.00013234197 -0.0011593084 1.6158017e-05 0.00021345017 0.00058602757 0.0013030216 0.0012047003 2.474701e-05 0.00027759594 0.0016471648 0.0016419134 0.0003863328 -0.00020886026 0.00012969325 4.4342105e-05 0.0008004824 -0.0006374625 0.0007412176 0.0006749181 -0.00061614305 0.0013454295 -0.00050593866 0.00147145 -0.00061474676 -7.7086275e-05 0.0015294321 0.00051977456 0.00057128526 -0.0010229487 0.0016597448 -0.0012287298 0.00042126363 0.0009033196 0.00015193189 0.0001466122 -0.00094098295 0.00067634793 -0.00012704676 0.00069154135 0.0013589653 -0.0011595192 -0.00044165528 0.00062938465 0.00050126575 0.00018961196 -0.00052617997 -0.0008050157 0.00049605884 -2.2454746e-05 0.00088255206 0.00016108138 -0.0010191506 -0.0015053892 -0.00035349015 -0.000728288 -9.987491e-05 -9.284666e-05 -0.0010484775 0.0011997177 0.0015881943 -0.00042454954 -0.00095505593 0.0009933031 0.0016256998 0.0015239165 -0.0009862884 0.00060897577 0.00044225325 0.0010507746 0.00062021334 0.00046441934 -0.00033999656 -0.0002725962 -0.00069169997 -0.00082532933 -0.0011959973 -0.00059857697 0.0001585557 -0.0010525045 -0.00018276363 0.00081875926 -0.0010482295 0.0010992496 -6.840761e-05 0.000107689135 0.0014192465 -0.0013476453 -0.0016566444 -0.00044840365 0.0010801854 1.5302372e-05 2.1534152e-05 -0.0011556819 -0.00018729678 0.0013008869 0.00065291085 -0.0006946019 0.0016138594 0.00017022406 -0.0012817499 0.00017643337 0.001271456 -0.0011657597 -0.00024768972 -0.00018992166 0.00091757317 0.00068345264 9.342652e-05 0.0014067653 0.00023760281 -0.000918062 0.0016088141 0.001526016 0.0015504604 -0.0011492885 0.00085286883 -0.000758238 0.00045960347 0.0006422215 0.00027645452 -0.0004732675 0.0003527271 -0.0012650823 0.0002542228 0.00082750036 -0.0003019297 0.00058875524 -0.00096961576 0.0016099086 0.0015674427 5.9114172e-05 -0.0015755722 -0.00018560569 -0.00047074654 0.001180828 -0.00015894532 0.00029738853 0.0013609158 -0.0012188455 -0.0009078259 -0.000680277 -0.00011044738 0.00071903225 -0.0015094569 0.00020476237 0.0009094078 0.0008052217 -0.0016002379 0.00011014164 0.00044431142 0.001259181 0.00031484614 -0.0015870081 3.287381e-05 -0.00073486345 -0.001047672 0.0014682751 0.0007589396 0.0009785909 0.0005809775 0.00020210518 -0.0013107861 6.246779e-05 0.00041084707 -0.00041529033 0.0003084575 -0.00022279612 -6.7538804e-06 -0.001326816 1.8328086e-05 0.0013828623 0.0010460601 0.00039770963 0.0002612311 -0.0004722897 0.0010229213 0.00043361285 0.0015993931 0.00050524453 0.0010051354 0.0012351582 -0.0016092608 -0.0006916272 -0.0013847386 0.0005172925 0.00020335733 0.0009954404 -1.3051887e-05 0.0005316711 0.0010922618 -0.0016435186 -0.0010625531 0.0015044829 0.00082956144 0.0012419728 -0.00062869623 0.00036017285 -2.6905105e-05 -0.0013712469 -0.0010030989 0.0015348387 -0.0005833415 0.0003742938 -0.0015587815 -0.00061223167 0.00026139812 0.0015520906 -0.0006398958 -1.4351153e-06 0.00033915503 -0.00011317511 -0.0013003813 7.2790746e-05 -2.0662772e-05 0.0005157681 0.0014191114 -0.0003660162 0.00013813302 0.00071643176 0.0015108449 0.0009302612 -0.000491985 0.0013753857 -0.0012677257 -0.0006394324 0.0004080304 -0.0012004749 -0.00011629814 0.0007138135 0.0013127228 0.0013559853 0.0012580133 -0.0012539868 1.2772769e-05 0.0010618618 0.0007317949 -0.00024002425 -0.0013599037 -0.00077702303
ginni 0.00047919728 0.0008768007 -0.0008809755 -4.6429714e-06 -0.0007269197 -0.0009181078 -0.00065637834 0.0010127496 -0.0007117815 -0.00017315907 0.00067034684 -0.0011817969 -4.2445834e-05 0.00017444271 -0.0016454167 0.0009790541 0.0010597724 0.0010331975 0.0004165211 0.00016208371 -0.0012646284 -0.0005349172 -0.0014507507 0.0008834714 0.0016615622 -0.0007616262 -0.0008660988 -0.00068211067 -0.00076782965 0.00019427978 0.00051439955 0.0009591978 0.00064192835 0.0016415754 -0.00058220327 0.0013254124 -0.0016239004 0.0007108916 -0.0004977682 -0.0014485016 -0.0002706558 -0.0011306911 -0.0008944296 -0.001543419 -0.00081408955 0.0006716119 0.0014372687 -0.0013933143 -0.00089261093 0.001492089 0.0005324 0.00065604865 5.9096037e-05 -0.0010648979 -0.0002279427 0.0015142648 -0.0015776971 0.0004734646 -0.0014746699 0.00059622887 -0.00080443174 -0.00016862652 0.00080026925 0.00010426981 -0.0013445007 -0.00096074276 0.0008687964 0.0004857067 4.6007394e-06 0.0011462623 -7.060008e-05 -0.001324639 -0.0005733281 -0.00018765645 -0.0002853009 -0.0009900209 0.00080031966 0.00042433286 0.0011440519 -0.0003833293 0.0016112276 -0.0013509362 0.001296535 0.0008580389 0.0016437299 0.00016187053 0.00028404032 -0.0013591768 0.0003858138 -0.0015815194 0.000121875426 -0.00024754135 -0.00013398791 0.0010169729 0.0011739609 0.0015129799 -0.0011751938 0.001468725 0.00019223566 0.0010695083 -0.0009580085 -0.0015333869 -0.0010443163 -0.0015161027 -0.0011066694 0.00024302061 0.0008942406 -0.0003220814 0.0015086137 -0.0001845983 0.001559144 0.00096061255 0.00045921982 -0.0014927831 -0.0013296508 0.0011138025 0.0014742423 0.00042578508 -0.00011527506 -0.0012271723 0.0011618272 0.00024177502 0.0003289685 -0.00036820528 -0.00038217695 -0.00019166704 0.0014750677 -0.00013296302 0.0009030388 -0.00032084837 -0.0013029304 0.0009972627 0.0007819758 -0.0015013536 -0.0014637917 -0.0009154887 -0.0003106944 -0.0010712807 -0.00046435613 -0.000104317034 -0.001229655 -0.0015705767 -0.0016017506 0.0016563942 0.001332505 0.00084730075 0.0011329562 -0.0016637568 -0.00011758102 -0.00083825487 -0.00031472233 0.0006123133 0.0010471179 -0.00033308705 -0.0010310615 -5.021048e-05 -0.00014835407 0.00047590444 -0.00085375796 0.000552348 -0.0005418528 0.0013414813 -0.0004275185 -0.0015952269 0.0012777396 -0.0014287914 -0.00067906 -0.001366369 0.0007627358 0.0007757576 -0.0010102009 0.0006161898 -0.0012702554 -0.0009740011 -0.0009450926 0.00063611206 -0.0015761125 0.0006803059 -0.0004541987 0.00019702548 0.00059582957 -0.0007981577 -0.0007588507 0.00048983574 -0.00059784873 -0.0011642356 -0.0015807989 -0.00082789466 0.00014973122 -0.0005099628 0.0014251155 0.00018025788 0.0011698186 0.0010368043 -0.0015934128 -0.0007776336 -0.00028310285 -0.00035283735 -8.062086e-05 -0.00073501706 0.0014018356 -0.0010711241 -0.0005339382 0.0012506818 0.0014305426 -0.0002803234 5.9917627e-05 -0.0013407876 -0.0008320471 0.001223815 -0.0015188669 0.0009283914 -0.0005163206 -3.2316908e-05 -0.0010244645 -0.0012543915 -0.0006248087 0.001364728 0.00087121443 0.0012711921 0.00036429154 -0.0010175542 0.0009850988 -0.0007757573 0.0011210155 0.00030204304 0.0011610624 0.00070948404 -0.0016575594 0.00049895816 0.0010008261 -0.0016604258 -0.0014290466 0.0007728429 -0.0012126778 -0.0015866967 -0.0005667093 0.0007595342 -0.000651505 -0.000247451 -4.1780633e-05 0.0016054864 -0.00035668467 -0.0001788108 0.0008931655 -0.0005010797 0.00064797886 -0.0014742868 -0.0015660588 -0.0014408241 3.8424434e-05 0.0013736034 -0.0006374255 0.0013654573 0.0003313391 -0.0011000462 0.00095648033 0.0005109898 0.00062935095 -0.0001109278 0.0013407536 0.000649145 0.0010587042 -0.00040024662 0.001202818 0.0010607775 0.0002179827 -0.0012194851 -0.00031152007 0.0011688181 -0.0014876751 0.000907493 0.000101660386 -0.00048595446 -0.0010184421 -0.0013917662 0.0005278236 -0.0016193237 -0.0012783614 0.0015405021 -6.878027e-05 0.00043030837 -0.00053919584 0.00016741033 3.5946647e-05 0.0005943426 -0.00013148123 0.0014885514 0.0014456902 0.00039923476 -0.00092452404 0.00014429686 -0.0010912024 0.0010997743 0.0001499142 0.00025657672 -0.00045570073 0.00029159716 0.0002577351 0.0010863477
chatrath 0.00059443037 -0.0015671165 0.00038663935 -0.00052439835 -0.0007480381 -0.0010615843 0.00010531209 -0.0004067388 0.000947762 -0.0014966484 0.0006018288 0.0009477616 0.00066804636 -0.0015541427 0.00022528392 0.00033196312 0.0011500078 -0.0005119892 -0.0013971538 -0.0010480386 -0.0012341033 0.0013253266 -0.0005828035 0.0015576278 -0.000642857 -0.0016004654 -3.4300956e-05 -0.00071653177 0.0003058074 0.00025224237 -0.0008448758 -0.0004118295 -0.00017474999 0.00023713884 7.1872324e-05 -0.00053644966 -0.0010983048 -0.0013312921 -0.0006781059 -0.00017097726 -0.0004668729 0.0008575212 0.0006408113 -0.00084853615 0.0008768707 -0.00037774272 -0.00080555934 -0.00025354468 -0.0010013989 6.694521e-05 -0.0013259402 0.0015528554 0.0014210824 0.00058143394 0.0006653234 -0.00021636038 -0.0015913076 0.0007916684 -0.00078610016 0.00056754705 0.0012001322 -0.0010741504 -0.0010627597 -0.0009188932 -0.0013843569 -0.0010859253 0.0005005103 -4.2266234e-05 4.563316e-05 0.0016300804 -0.0014428103 0.00056183455 -0.0010735595 5.3871652e-05 -0.00084166793 -0.0008856553 -0.00082201674 -0.00018669617 0.0008033915 0.001366088 0.001338694 0.0015270102 0.0008837544 0.0007686528 -0.00078893517 -0.0013986162 1.2007513e-05 0.0008045992 0.0006091518 -0.0015926636 -0.0004976001 0.00058330863 0.0012814256 -0.0008542673 -0.0016208258 -0.00048085657 0.0005041801 -0.0012444565 -0.000756086 0.00151688 -0.0013709367 0.0005105297 -0.0006209751 0.001348677 4.1925923e-05 0.00027324594 0.0010744046 -0.00043681747 -0.0013697447 1.3556313e-05 0.0006432585 -0.00039209827 7.734836e-05 7.740505e-05 0.0010870512 0.0004408222 0.0010510704 0.00044335105 0.0012066666 0.00014112002 0.0014141622 0.0010816149 -0.00064260396 -0.0010570363 -0.00026749563 0.0005679848 -0.00029277496 0.0003552312 -0.00011484576 0.0008369652 0.0006816952 -0.0015175088 0.00090319366 0.00149194 0.00065727765 -0.0005258804 -0.00013653617 -0.0014310541 -0.0008116587 0.000265512 -0.00038644706 5.2679923e-05 0.00055840495 2.0802729e-05 -0.0010812547 0.00069974514 -0.00080609095 -0.0015297169 -0.00044438208 0.00084095204 0.0005524785 0.0016608267 0.0003369346 0.0014933748 -0.0013824665 0.00043285763 0.00085436937 0.0011658149 0.0010716117 -0.0012822141 6.0980587e-05 0.00023583228 -0.0003636951 0.00090104673 0.0010486383 -0.0015445774 -0.0007602271 -0.000889531 0.0014063019 -0.0014453215 0.0012875061 -0.00082385744 0.0010482838 0.00082772085 -0.001607606 -0.0013570215 -2.5591049e-05 0.0012822612 7.993838e-05 -0.001385508 -0.00087763334 0.00011135756 0.00091504905 0.0014385042 0.00015376351 -0.0009062725 -0.00047068944 -0.001366255 0.0015776344 -0.0016544304 -0.0002557081 -0.0014426932 0.0012589432 -0.0011032064 -0.0013372684 0.0010620176 0.0013624713 -0.0006416262 -0.0007133395 0.00067848095 -0.00053774397 -0.0015012225 -0.00065990497 0.00053193077 0.00027345945 -0.00070843135 0.0001613023 0.00053460826 -0.0008738349 -0.000693806 0.0013696427 -6.569236e-05 0.0016056381 -0.0006216266 -0.0002016323 -0.00070169364 0.0005632817 0.0012422125 -0.0015193817 -0.0009923121 -0.0012298668 0.0012551837 0.0004529787 0.00048953 0.0014183759 -2.5174113e-05 0.00022359651 0.00095646334 0.00060330244 -0.0006535361 -3.4511955e-05 -0.0007402524 0.0015682686 -0.0009170141 0.0007051324 -0.0011174107 0.00069768983 -0.0011124795 0.0013639265 -0.0013649308 -0.0003660865 -0.0014360715 4.8847938e-05 0.00015123167 -0.0013429148 -9.7304495e-05 0.0001968655 0.0008376468 -0.0009518087 -0.0013585665 -0.0016524774 -0.0014778399 -0.00049462874 0.0004917211 -0.00043032184 0.0012740012 -0.0005369853 -0.00027416545 0.00013620882 0.00053722906 -0.0007916857 -0.0010943128 -0.00018338748 -4.175209e-05 0.00030059324 -0.0010115901 -0.00059763313 -0.0009725634 -6.729705e-05 -0.0013698924 -0.0005215748 0.0012532348 -0.00055745046 -0.0005397548 0.00070540264 -0.00016333169 0.0005686374 8.532476e-05 -0.0010531277 -0.0009927134 0.0014610864 -0.0009777007 -0.00034234225 0.0013801102 0.00026445262 -0.0008266935 -0.0011683746 -7.8142085e-07 0.0015966865 -0.001486093 -0.00078001514 -0.0012143428 -0.0014855134 -0.0009751295 0.00049831363 -0.0016574059 -0.0002868609 -0.00047820382 0.0010919671 -9.365015e-05
padukone 0.00088547956 0.000519302 0.001416903 0.0010289807 0.0006393434 -0.00016741098 -0.00019447866 -0.0010187109 0.0007682206 0.0002685274 -0.00043169424 -0.00031301004 -1.18104645e-05 -5.772707e-06 -0.00013268137 0.0014689643 -0.00040250795 -0.0010830127 -0.0011573528 -0.00013384018 0.00076018734 0.0016213262 -0.0003549542 0.00020732383 -0.0011345347 0.00043408372 0.0013806071 -0.0007550211 0.00010063091 -0.0013235171 -0.0009351863 0.00026493976 0.00077153626 -0.0011349877 -0.00030885093 0.0013006596 -0.0008380979 -0.0014098514 -0.00063780457 0.0014812871 0.0011281222 -0.0007282066 -0.0007963304 -0.0006549367 0.00053966895 -0.000992319 -0.0004190419 0.0007673674 0.0016563282 -0.0011405844 -0.0002652044 0.00070708146 0.00022883742 9.333009e-05 -0.00039151192 0.0006463054 0.00026487967 -0.0011433603 -0.0014750992 0.0014552329 -4.7224916e-05 0.0014504687 -0.000625587 -0.0014498837 -0.0012409166 0.0013641453 0.0014879641 0.00029358378 -0.00019599943 -0.0009574472 0.0010825815 -0.0011185989 2.5671412e-05 9.683652e-05 -4.0352625e-05 0.00072158757 0.0015476134 -0.00016720811 -0.0014011534 -0.0010491601 0.0010721622 -0.0007200112 -0.00018565932 0.0005767259 -0.0005429123 0.00089619367 0.00032867125 0.00081072445 -0.0002567703 -0.0012788366 0.0016229962 -0.0012678088 -0.0010114935 -4.512756e-05 -0.00055938645 0.0012876128 1.8432887e-05 -0.0014856812 -0.0009749124 -0.0009896348 0.001348158 -0.00050152413 8.764907e-05 -0.00133044 -0.0010504212 0.00020425215 0.00021520212 0.00043999017 0.0010079218 -0.001211353 -6.29711e-05 0.00078461657 0.0004866806 -0.0016501414 -0.0014172723 0.00028211533 0.0008428566 0.0003522311 -0.0013898087 -0.00049900886 -0.0004457964 0.0014223903 -0.00076575176 0.001446987 -0.0015575242 0.0015592861 0.0013297695 0.001110244 -0.00061413605 0.0006363968 -0.0013981664 -0.0009980645 -0.0006216147 0.0007891784 0.00076101045 -2.5258927e-05 -0.001235906 -0.00052075955 -0.0005205821 -0.0011313163 -0.00025832473 0.0013074935 -0.0012319601 0.0008251064 0.001562485 0.00045840666 0.0010947952 0.0015317589 -0.0015957291 -0.00047929303 0.00095568155 -0.00030496917 -0.00043859644 -0.0007081176 0.00036944938 -0.0002323286 0.000113749375 0.0007313243 0.0013409383 0.00091168593 -0.0012879779 0.0005642133 0.00017107799 0.0006017421 -7.242619e-05 -0.0006958303 0.0005986689 0.001466645 0.0016069867 0.0004054109 -0.0016225278 6.057958e-05 -0.00032565065 -0.00032640767 -0.00010778685 -0.00055640657 -0.00035636724 -0.0013863087 0.0012359631 -0.00019017169 -0.0001695422 0.0016095568 0.0009863214 -0.00041456908 -0.0012791763 0.0014923391 0.00018248592 0.0007688668 -0.0010734319 0.001063182 0.0009951657 -0.0007154435 -0.0013997962 0.0006426404 -0.0006406305 -0.0001358166 0.001280549 -0.0005981479 0.0012375156 0.0011654289 0.00038266846 0.0015575411 -0.00086897163 0.0006465266 0.0011166075 0.0015400444 0.0010457424 -0.00092943705 0.0005725421 0.0014815571 -0.0007450355 0.00027951575 0.0012956248 0.0006831178 0.0011071726 -0.00093369215 0.0003314876 -1.0983453e-05 0.0005466972 -0.00033604357 -0.0013919206 -0.00027462558 0.0015938923 -0.0011271889 -0.00070836773 0.0008366408 -0.00028841794 0.0016294705 0.0006068005 -0.0013428298 -0.00027445372 0.00023080125 0.00040614817 0.00052977283 -0.0009013568 -0.000424604 0.0015233848 0.00041065383 0.00032717743 0.00040385453 -0.0011126789 -0.0013241319 0.00017036789 0.00057503104 -0.0011201398 0.000604361 -0.001623717 -0.00097248045 0.0011073679 0.0012255099 -0.0013222724 -0.0013872256 0.00055311405 -0.00043427065 -0.0004658026 0.001568974 0.0007427336 0.0015805358 0.00083508564 -0.0006785685 0.0016222611 -0.0007724257 0.0007887599 0.0006621152 -0.0005150958 0.00084981933 -0.00063298317 0.0014160324 -0.0002321086 0.00074890687 0.0008242786 0.00027383096 1.4937326e-06 0.0010961111 -0.00022683844 -0.0007235619 8.020862e-05 0.00076327514 0.00065443845 -0.0011509937 -0.000911415 -0.0009402558 0.00075537094 -0.0005120671 0.0013294163 0.00039949134 0.0006190106 0.0011819504 -0.0003460581 -0.0015021982 -0.0013185452 -0.00085414934 -0.0006664225 -0.0013976253 -0.001038165 -0.0010746226 0.0006006926 0.00049353077 0.0007426284 -0.00043128495
singh 0.00035912753 -0.0012296258 0.0015803094 0.0016475156 -0.00044762812 -0.00071516965 -0.001054673 -0.0013379265 -0.0013985581 0.00082561065 -0.00094850926 -0.0013123321 0.0013267412 -0.00031011016 0.0014336266 0.001154585 -0.0015002505 0.00082246505 -9.837068e-05 0.0007668262 -0.0012015963 0.0011793014 -0.0011154775 0.00043769056 0.00065883226 -0.00054011436 -0.0003965846 0.00033093742 0.00018817435 0.000708577 -0.0004168056 0.0003393791 -0.00066424476 -0.0007468881 0.00059216196 0.00066028297 0.0008655166 -9.4463554e-05 -1.6952363e-05 0.0003090154 0.0012158283 0.00073009287 -0.0011615052 0.0014221434 0.00032019874 -0.0006841021 -0.000717713 0.0016343793 -0.00092076324 0.00066152564 -0.0010107963 0.00035439324 7.0355934e-05 -0.001132211 -0.0010334995 -6.3734e-05 -0.0005982684 0.0014455029 -0.00030344562 0.00069485395 0.0009983315 0.0014389483 0.0012383934 -0.000810428 -0.0016804127 -0.0012717737 -0.00052955636 -0.0009448792 -0.00074535044 0.0002953875 0.0007474123 -0.0011222141 -0.001539131 0.000915721 -0.0006147475 0.0012912548 -8.640269e-05 -0.000820651 -0.0003685745 -0.0005393778 0.0008225706 -0.00033523922 -0.0004625235 0.00050267467 0.00093923364 -0.0012631932 -0.0015047392 -9.325483e-05 -0.0015955452 0.00049807073 -0.0013477035 0.0013229587 -0.0007818996 -0.00075732905 0.00041421477 -0.0004150818 -0.0003778789 0.0010213918 0.0014986902 -0.00048856734 -0.0010399575 -0.00020398412 0.00039257781 -0.0010638803 -0.00026973442 0.001330327 -0.0009846834 0.00046211603 0.0010866185 -0.0014153013 -0.0016354251 -0.0012369512 0.0010849708 0.00019427668 -0.0010651891 0.0006293095 0.0013457745 0.0012985888 0.0007522883 -0.0007104594 -0.0012189788 0.0007361813 -0.0012362348 0.001167683 0.0010950567 7.809595e-06 -0.0014855695 0.00030305603 -0.0011735512 0.0015435562 -0.00045737703 -0.00036877298 -0.001570421 0.00023100256 -0.001150081 -0.0008406713 0.00016096384 0.0006694738 -0.0010298652 -6.2825435e-05 0.00093826116 -0.0008345103 0.0016450692 -0.0006095886 -0.0008825457 -0.0006342712 0.00087840715 -0.00054571015 -0.0012637178 -0.00046929283 -0.0010471072 -0.00071657734 -0.0011124504 0.00046872348 0.00035981523 0.00044810344 -0.0005159394 -0.00038886582 -0.00019234569 0.0008742191 0.0007990537 -0.0010344514 -0.0016282038 0.0016444756 0.0006940233 -0.000248544 0.0007072875 0.0013867235 0.0015199775 0.0014651852 0.00026503223 -0.0005946353 -0.0012242561 -0.0012997694 -0.0008632773 0.000112750575 -0.0015642601 -0.0006370776 -0.0015290286 0.00050547626 0.0008467698 -0.0016428139 0.00113192 -0.00106504 0.0011070385 -0.0013319387 -0.0012502018 -0.0009809112 -0.0015204098 -0.0010821843 0.00069954956 1.5876698e-05 0.0014300874 -0.0011232778 0.00019014454 0.00038707085 -0.001234189 -0.0011960347 -0.0011065932 -0.0010092246 -0.00054225326 -0.0008414313 -0.0015675247 -0.00062229804 -0.0009174823 0.0012868587 -0.0011219853 0.00058291474 0.0007335354 0.0012766352 -0.00025262623 0.001255912 0.00039585898 -0.0010260859 0.00049094675 -0.001290106 -0.000888938 -0.0011928615 -0.0008217681 0.0016563018 0.000439952 0.0010573633 -0.00023294517 -0.0001617979 0.000888782 -0.0006290794 0.0015913493 0.00082661625 -0.00016739323 0.0014357991 -0.00025022644 0.00042675008 -0.00024554596 0.0008339951 -0.0005852669 -0.000962356 0.0009924886 0.0015336054 0.0003149452 -1.0518546e-05 0.0015062005 -0.00098953 0.0007209094 0.00036737585 0.00033155622 0.000662037 0.00036600203 0.0007030365 -0.0016331392 -0.00043378794 -0.0014393145 0.0009102448 0.0008250932 0.001285258 0.00021119845 0.00018898673 0.0008739043 -0.000989573 -0.0005295687 0.0007518287 -0.00011051924 0.00040589162 -0.00029155717 0.00042403885 -0.0012521922 0.00042994053 0.0012140698 -0.00066994847 0.00039456677 -0.0015974314 -0.0010412774 -0.0002347383 0.00015678309 -0.0013325667 -0.00077515404 -0.0009212698 0.00041723187 0.0006559783 0.0007882896 0.0015251543 -0.0008625573 -0.0010312537 -0.00052441616 0.0007032837 -0.0013169273 0.0004148187 0.0003733293 -0.0014931618 -0.00085296645 0.00014874365 0.00041565544 0.0013918256 0.0010342359 0.001601211 -0.0010284602 0.0006064319 -0.0006100719 0.0011695005 -0.0011550746 0.00032694582
2018 0.0013756267 -0.00044710128 0.00042037314 -0.0015468752 0.0014330905 -0.0015247997 0.0006380627 -0.0009926 -0.00014178171 0.0013191485 0.00011395089 -0.00095457636 0.0012468051 -0.00040152227 0.0016489917 -0.0012996128 0.0011700651 -0.001063211 0.00140317 -0.0015100974 -4.767213e-05 -0.0010159807 0.0011843656 -0.0007425935 -0.0005792331 -0.00014227074 -0.0006019575 0.00020694552 0.0012544801 0.0013788113 0.0015694605 0.00089655875 0.001461072 0.00058611215 -0.0013553894 0.0014044944 0.0006423894 -0.0014095996 0.0006276652 0.001651296 0.00074490067 -0.00025486757 -0.0013595126 0.00022768183 0.0005615708 0.00060608744 -2.2187916e-05 0.00032724533 0.00031346024 -0.0013056243 -0.00041490796 -0.0011143689 -2.1020836e-05 -0.00039391118 -0.0016434623 -0.00072793604 0.0010231084 -3.6774763e-05 0.0013906675 0.00091929873 -0.00090734585 -0.0006889709 -0.0006144684 -0.0015440832 0.00014401782 0.001493747 0.0008806687 -0.00012548253 0.00017326915 0.0007764637 0.0002458385 0.00013016466 -0.0011128352 0.0013777764 -0.000249163 -0.0009362352 -0.0009871831 0.00027818163 -0.000556582 0.0014602791 0.0015406967 -0.00024926808 -0.0011348352 -0.0004898985 -0.0007625492 -8.4292944e-05 -0.0010916055 0.001035813 0.0015146879 0.00067026773 0.00022945028 -0.001118608 0.0005917208 0.00075678364 -0.001631514 -0.0013069187 0.0011074203 0.0011706443 -0.0013463763 -0.0015600679 -0.00025926053 -0.00013362616 0.00061805063 -0.00064710533 8.810214e-05 -1.6218023e-06 0.0009937837 -0.001218396 0.00055225444 0.00041132123 0.0003439103 0.00035151624 0.00032756693 0.0006817838 -0.0008357934 -0.001105384 0.00010230383 0.0007249608 -0.00010483764 0.0003155103 0.0012202814 -0.0009772878 0.0001384775 0.0005941953 0.0015478351 -0.0015971916 0.0005186076 0.00045324292 0.0011921675 -0.000917638 0.0005066418 0.00019200807 -0.00088105415 -0.00062024355 4.9079543e-05 0.0014954581 -0.0014308705 -0.00067111617 -0.0003211344 0.00082529255 -0.0014391234 -0.0008234182 0.00014521305 0.0013025574 -0.00096031546 0.0010147314 0.0012036953 0.0015313143 -0.0004852493 -0.0011669578 -0.00090092036 -0.0014192052 0.00026697203 0.00012462189 -0.0014233991 -0.00026020454 -0.0012436903 -0.0012466761 -0.001048111 -0.0006698918 -1.6375203e-05 -0.0015821157 -0.00039437076 0.0006869159 -0.00063860277 0.0009717399 -0.0013912644 -0.0007560149 0.0014866651 0.00012540347 0.001219994 0.0010496886 0.00051242666 -4.4806297e-05 0.0004145469 -0.00050022843 0.00033533093 0.0012528285 -0.0008713783 -0.0013213009 0.0016717918 0.0013269089 0.0012740261 0.00037109 0.00077710126 -0.0016448734 0.00060775696 -0.00087956886 0.001331739 -0.0013901249 -0.00096516946 0.00016423975 0.0008735698 -0.000560837 0.0011301606 0.0011000818 0.0010565056 -0.00011199845 -0.00022619707 0.0014040539 -4.3361837e-05 0.00016007367 0.0015720126 -0.0006951598 0.00056519994 0.0013027311 0.00065328565 0.000982633 -0.0008635419 0.00138143 0.0007165145 -0.000818221 -0.0012084506 0.00078317954 0.0006349744 -0.0010784566 0.0013452498 0.0010605747 0.000817223 -0.0010529055 -0.0016671153 0.0012007618 0.0008228537 -0.0004243058 0.0010820887 -0.00023774564 0.0010200053 -0.0006371154 -0.0005221446 0.00070163776 -0.0008098313 0.0009126153 0.00026815472 4.899658e-05 -3.6887923e-05 -6.6228386e-05 0.0015843303 0.000681848 0.00069942104 -0.0015224095 0.0010473273 0.0011346964 -0.00096938165 0.00063208805 -0.0014293516 0.00042715325 0.0014518285 0.00052234274 0.00046228155 -0.0011199231 -0.0011179231 0.0011378822 -0.00015418557 0.0013320369 -0.0015328905 -0.00044250744 -0.00072114123 -0.001169717 0.0008671025 -0.000449215 0.00050793943 -0.0014876713 -0.0003339875 0.00029265333 0.00046152077 0.00017118624 -0.00045479514 -0.0010425372 -0.00018323032 -0.00022003 0.00053449924 0.00027989873 -0.00015711482 0.0003166601 0.00032542436 0.00026424587 0.00040397604 1.7694474e-05 0.0005621006 0.0005094884 0.0012217449 0.0005099287 -0.0009791875 -0.0005350709 -0.00088943134 -0.00024304117 -0.000103952705 -0.0012155669 -0.00081617985 9.8916425e-05 0.0013216991 0.0009639296 -0.0012873703 -0.0005048181 -0.0003545585 0.00033650978 -0.0014322022 -0.0014670937 0.00086578436 -0.00068555056
also -0.0005815638 0.0014558564 0.0016628378 0.0003456644 -0.0016128747 -0.0010703575 -0.00047084896 0.0009801951 0.00074658793 0.0011906243 -0.0015679548 0.0010721725 -4.094513e-05 -0.000229458 -0.00010152987 -0.0015293306 -0.0013884103 0.0008659774 0.00089169556 -0.0001687174 0.0008470322 0.0015662417 0.0007023826 -0.001059893 0.00031268861 -0.0010145729 0.0012911018 0.0006920423 -0.00037127527 0.00038246065 0.0013633051 0.0007406037 -0.00017611257 0.0007012481 0.0014010237 0.0015404744 -0.00089325535 -0.0012050214 -0.0009526498 0.0002993285 0.00062990555 -0.00024446976 0.0009549047 -0.0015706514 0.0015575074 0.0007892469 -1.6926215e-05 0.0011488277 -0.00025555489 -0.0013484905 0.00034861465 0.00057577615 -0.00019550622 -0.001456204 0.0012750753 0.0015908316 0.0008773908 -0.0013608738 0.00021606882 -0.0005502061 -0.0011652291 -0.00087192 -0.0014713033 0.0007641269 -0.0013260439 0.0010181094 -0.00022302524 -0.00139063 -2.657155e-05 -0.00031918654 0.00082173507 0.0010501101 -0.0013763073 -6.5317145e-05 -0.0013426548 -0.0010504106 0.0015035345 -0.00021062182 -0.0007172705 -0.0012380789 -0.0016050886 -0.0008088733 -0.0007823889 0.0013572376 0.001152382 0.0001996845 -0.00091000326 -0.0015020977 0.0015277187 0.0011152757 -0.0007598376 0.00011897905 -0.0014750283 -0.0007492467 0.0013334254 -0.0014948861 0.0014460884 -0.00010881982 -7.876867e-06 -0.0013822609 0.00018448243 0.00019629179 0.00030735077 0.0003271853 -0.00014975703 -0.00033482802 0.0001540799 -0.00147863 -0.0013462518 0.0007477875 0.00033559377 0.0014139997 -0.00043725545 0.0002130401 -0.0004415558 0.0015393597 0.0010348342 -0.0007613351 -0.0006498338 0.0011695515 -0.0014953723 -0.00026071334 0.00077406294 -0.00096526206 -0.0015940398 -0.00057080155 -0.00024228866 0.0011810492 -0.0008411894 0.00036107952 8.153522e-05 -0.0013188092 -0.0006645492 -0.0011140034 0.0004131056 -0.0010871622 -6.174659e-05 -0.0012647989 -0.0015547988 0.0014984634 0.0003000017 -0.0016689047 -0.0010214258 -0.00041575154 -0.00019408815 -0.00039287424 -0.0014061299 -0.00015747431 -0.0011524912 -0.0011297943 -0.0013408972 0.0013373244 -0.00014669 0.0013218294 0.0005521423 -0.0011262234 -0.00053493486 -0.00023870781 -0.0010752218 -0.00014957393 -0.0016561756 0.0006625746 -0.0014922789 5.1442544e-06 0.0016143484 -0.00031481896 -0.0014317859 0.0012337709 -0.00019319665 -0.00049745396 0.00049771793 -0.0008307933 0.00037603566 -0.0004931435 -0.0013945065 0.0013575477 0.0013870007 0.00013948826 -0.0012012118 0.0002390062 -0.0012582834 -0.0007584611 0.0011595963 0.0013973375 -0.0011654785 0.0006924388 -0.0015026795 -0.0015378202 -0.0005173573 -0.00090756366 0.00023418013 0.00097118726 0.00010050951 0.00035871807 -0.0011725673 0.0005906558 0.00048325557 -0.0013510353 -0.0005562666 -0.0011326779 -0.0011779525 0.0008320723 -0.0012044649 -0.001198004 -0.0005947182 -0.00060329685 0.00080284924 -0.0005452117 0.0012331688 -0.00020161203 -0.0012444615 1.980743e-05 0.0013272812 0.0014902065 0.0010288829 -0.0010732779 0.001341247 -0.0016235281 -0.0008986501 -2.7533704e-05 -0.0004914309 -0.000620939 0.00065716665 -0.0011718802 -0.0014380399 0.001396782 0.0016509411 0.0012862012 -0.00083618663 0.0006972852 0.00010651363 -5.5439086e-05 -0.0013854736 -0.00014635017 -0.00011980958 0.0014512016 0.000607622 -0.0006982253 -0.0016458211 0.00088301953 -0.0008447133 -0.001212834 -0.001208776 -0.0014700217 -5.944656e-05 0.0012149038 -0.0015188834 7.922721e-05 0.0007415983 -0.001633143 -0.00147442 -0.0010455566 -0.00011119591 -0.00024491677 0.0014778294 -0.0014079157 0.00015945508 -0.00056079857 0.0014399791 -0.0003751967 -0.00085368875 -0.00031533136 3.1800984e-05 0.0012321793 -0.0009472617 0.0003626636 0.0016593363 -0.00035394885 0.0003031152 -0.0013708058 -0.0008688146 -0.0010780821 -0.0006114658 0.0016326638 -0.0010696064 0.0003393008 0.0015916417 0.00024504014 -0.0010641807 -0.0006280468 0.00013207407 -0.0012137186 -0.0012275219 0.0014306608 -0.00026149937 0.0014346836 -0.001252789 -0.001193786 0.0015511843 -0.0015480107 -0.00079831027 0.00086173875 0.0009752903 0.00089634303 0.00041442574 0.0007007695 -0.00036377402 -0.00050667365 0.00021408395 -0.0015190151
from 0.0011762993 -0.0012507858 -0.00069194916 0.0002651981 -0.00040898504 -0.0009668854 -0.0005899887 0.001486852 -0.00095701875 -0.0013703211 0.0015540352 0.00023607588 0.0010468229 -0.0010336861 -0.0007945373 0.00084306597 -0.00026938276 0.0015676839 0.00028899312 0.0005703588 -0.0015314624 -0.00018327373 -0.00079475367 0.0016620633 -0.00042304423 -0.0016610365 -0.0010830212 1.7006945e-05 -0.0015416647 0.00045263424 0.0012474788 -0.0012110942 0.0006952863 -0.00090875995 -0.0011021281 -0.00043948836 0.0008727455 -0.00071048667 -0.000949455 0.0007202323 -0.00087559345 -0.0016034849 -0.001111391 -0.001485297 -0.0012599905 0.0013034124 0.001394147 4.8638845e-05 0.0012209779 0.0016169114 0.000976989 -0.0012942423 0.001533792 -0.0010676315 -0.00010080238 -9.35293e-05 -4.7604764e-05 -0.00026052186 -0.00010002394 0.00045607676 0.0012364247 -0.0006968833 -0.001538133 -0.00053392386 0.0007581292 -0.00071187096 -0.0011928534 -0.00030470098 -0.0016240854 -0.0013189157 -0.0015242833 -0.0013307506 0.0010004782 -0.0009905349 0.0011956644 0.0016224965 -0.00027272847 -0.00095776113 -0.00032319903 0.0015584488 -0.00044784503 0.0002539899 0.0013985949 -0.0011092678 0.0013149303 0.00011511587 0.0011957627 0.0002054907 0.0006286229 -0.0010682398 0.00042281364 0.0011603897 0.00016751506 0.000361264 -0.00095615676 -0.00011782264 -0.0015398798 -0.00082708756 0.0006821729 -0.00075934024 0.0016204997 0.0013313028 0.00041429754 -0.0013159191 -0.00075409206 -0.001433603 -0.000812724 9.730312e-05 0.00066074694 0.0015089778 -0.00014746225 0.0010978892 0.001617316 -2.2851214e-05 0.0012808632 -0.0006286184 -0.00055109523 -0.00146617 0.0014643878 0.00094518176 -0.0010841961 -0.0012915636 -0.00083648856 -0.0011611349 -0.0011475497 -0.0015495705 -0.0006544477 -0.0002443979 -0.0007804128 -0.0003185454 0.00055757 -0.00062418974 -0.0012229857 -0.00014421743 -0.00042616786 -0.00039123886 -0.0015211293 -0.0009185935 0.0008288377 0.00012668414 -0.0014789185 -0.00096338586 0.0011606249 -0.00013810115 -6.525306e-05 0.0008535128 -0.00021965883 0.0014225458 0.0016020156 -0.0010968144 -0.001082986 0.0010240786 -0.0015757644 -0.00047707467 -0.0007556179 -0.0006095516 0.0013916058 0.0015908164 -0.0012537284 5.532487e-05 -0.001180992 -0.0010617482 -0.000365923 -0.0005777667 -0.0011729274 0.00052309944 0.0015938708 0.00040430846 -0.0006474017 -0.0010532956 -0.0007168669 0.0011440861 0.0015704775 0.00011803872 0.0016196428 -0.0013607579 -2.2174407e-05 -0.0010743069 -0.00081144145 -0.0012773182 -0.001538919 0.0005501267 0.00043460302 -0.0005501144 -0.0002884831 0.00046667448 0.0015119292 -0.0007024766 -0.0009963105 -0.00061644416 0.00029597382 0.00081146567 -0.00031644173 0.00097391626 -0.00079597835 0.00027255816 -0.00047426636 0.0008752688 -0.00013779067 0.0010747152 -0.001205757 0.001319916 -0.0009081048 -0.0009849605 -0.0008922738 -0.0013018815 -0.00097116636 3.5210316e-05 -0.001293755 -0.0005042597 0.001010821 0.00086557295 0.001563509 -0.0011117216 0.00088301394 -0.00029826834 -0.0011133399 -0.0014021406 0.0006900934 0.0013874257 -7.5696764e-05 0.00031447312 -0.000581013 0.00045527914 -0.0010547112 -0.0016418495 0.0016753508 0.0010420879 -0.0016611397 0.00027779734 0.00079314894 0.00023191498 -0.00010022287 0.0012873819 -0.001556836 -0.00068646425 0.00110912 0.00091508724 0.0011486551 0.00082927727 -0.00025769387 -0.00052105344 -0.00070570374 -0.00070057856 0.0011981685 0.0001399693 -0.0014016968 -0.0011967876 0.0013128797 -0.00040269375 -0.0013610831 -0.0005391758 -0.0012263772 -0.00078793627 -0.0012586332 -0.00042806577 0.0003029097 0.0014310414 -0.00024873886 -0.00047505242 -0.0001546217 0.0014178965 0.0003276362 -0.0006791263 -0.0010026828 0.0014237317 0.00092053 0.0016390379 -0.0010618923 0.00128894 0.0010863553 -0.00045071467 0.0006325436 -0.0012024252 -0.00080775877 0.00052372424 0.00076417206 -0.0006328306 0.0009495904 -0.00031653442 0.00072437484 -0.0007895512 0.00036910697 0.0011894898 -0.00057215046 0.00037941014 -0.0013317148 -0.0010198455 -0.00048022298 0.00036848587 -2.3739829e-06 0.0008838547 -0.00096608535 0.0014010423 0.0010804471 0.0011972388 -0.00088338886 -0.000117658994 -0.0011731598 0.00096171635
man -9.07712e-05 0.0011164356 8.525903e-05 0.0015300516 -0.0011787146 0.0005325309 -0.0011572897 -0.00075742917 -0.0009259135 -0.0012056662 -0.0013606541 -0.00023534072 0.0004767676 0.00046528038 -0.0004231076 -0.00093937776 -0.0014386476 1.9797875e-05 9.907045e-05 0.0011449851 -0.0013377602 -0.001339238 -0.0012248822 0.00016877109 -0.00015481934 0.0013451301 -0.0014322463 -6.2637184e-05 -0.0010385432 0.0005686983 0.0016062504 0.00044810268 0.00050592865 0.000161463 -0.0012853235 -0.00018159566 0.0013369032 0.0015094711 0.0008083155 0.00054913684 -0.0005804562 -0.0013887776 0.00064148847 -0.00058698456 -0.0009990361 0.00072334585 0.00020516421 -0.00063174596 -0.00045982178 0.0014445055 -0.0008556772 -0.00083241874 0.00096115796 -0.0007937845 0.00046839574 -0.0011093945 -0.0014123993 0.0008292589 0.001492814 0.0010442331 -0.00083491876 0.00156965 -6.300532e-06 -0.001343525 -0.0016233564 4.8374837e-05 -0.0013304463 0.0014593315 -0.0010374439 -0.0010284783 0.0015001467 -0.0011135957 -0.0006694756 -0.0007438925 -0.0014905945 0.00013491914 -0.0006033923 -0.0005746862 0.00036580054 -0.00015045368 -0.0005227774 0.0013625828 0.0016447457 0.0008781405 8.629624e-05 -0.0010139839 0.001267861 -0.00048508713 0.00036508837 0.001138095 -0.0012217498 -0.0013417369 0.00015033236 0.00030661735 0.0014327138 -0.00063916715 -0.0012208235 -3.9262974e-05 -0.00017571499 -0.0016114126 0.0009665221 -0.00018901407 -9.164864e-05 0.0001351596 0.0010023898 0.0008394894 -0.0012519513 -0.00067640777 0.0006665721 -0.00096082984 6.158035e-05 0.0005750742 -0.0010194825 0.0012450786 0.0016488498 -0.0010307153 -0.0009703916 -0.0009304793 0.0010403232 -0.0012640439 -0.001029156 -0.0008047555 -8.1390775e-05 0.0016266728 -0.0010015336 -0.0008632251 -0.0004507636 0.0015251596 0.0006627593 0.0013089186 -0.00054843246 0.0003505899 -0.00045461766 0.0010142651 0.0015489818 -0.000838913 -0.0009438681 -0.00016084399 -0.0009794915 -6.363945e-05 -0.000954708 -0.001325142 -0.0013359087 0.001179656 2.8079667e-05 -0.00095322455 0.00090594304 0.00045569093 0.00036427195 -0.0015798307 0.00050430006 0.0014028435 0.00094692624 0.000987757 -0.0015069467 -0.0010246092 -3.075319e-05 0.00073313084 -0.00031439215 -0.00052668864 -8.9596404e-05 -0.0010809496 0.0006574475 -0.0016573335 7.1403905e-05 0.0016016301 0.0013814846 0.00096087967 0.0014087886 -0.0011854081 -0.00068305014 -8.262989e-05 -0.0014203645 0.0012636911 -0.0014241589 -0.0006194928 -0.00027908082 0.0014392975 -1.2563416e-05 -0.00040426123 -0.00033208248 0.00094165053 -0.0010297428 -0.0010317457 -0.00018192646 0.0016062252 -0.0011830196 -0.0011034878 0.0013289253 -0.0016566113 -0.0001604979 -7.3083775e-06 0.0006639981 -0.0002441755 -0.00043228923 0.00081905356 0.0004397752 -0.001304496 0.0015023322 -0.0015575358 -0.0014456381 -0.0009803037 0.0015228095 -0.0010568497 -0.0007373444 -0.00016318624 0.00028881014 0.00044758664 -0.0011815736 -0.00043238097 0.0006711021 0.0013605701 0.00057498005 9.40956e-05 -0.0015468749 -0.0008999985 0.0012787948 0.0004992226 -0.0008365578 0.0008649477 0.00043146982 0.0015680789 0.0016315348 -0.0015381314 0.00082949427 0.00084158377 0.00051926106 -0.0001820309 0.0006914301 -0.0010596424 0.000568883 0.0010917255 0.00120822 -0.0015776971 -0.001587221 -0.0008513062 -0.00080898387 -0.001558874 -0.0012029199 0.0014203108 0.00039255488 -0.0014572663 0.0002162162 -0.0010653101 0.0008064218 -0.0007998384 -0.00050769903 0.0007321649 0.00033057513 0.0015896367 0.00031353132 0.00037246547 -0.00012135164 0.00018454743 0.00041012574 -0.0012458557 -0.00057766703 -0.00076907413 -0.001564035 -0.0005962108 -0.00044729564 0.00019774633 -0.00035492767 -0.0006879616 -0.0015124616 0.0012690774 -0.0011705442 0.0002306356 -0.0012109028 -0.00032197608 -0.00020831793 -0.0015733049 1.3470213e-05 -0.0012578272 -0.0001387767 0.0016538783 0.000750835 -0.00091450784 -0.0001339656 0.0011214401 -0.0013298262 -0.0007025969 -0.0011777774 -0.0012114918 0.0012363321 -0.0014708804 0.0013061072 -0.00015781878 0.00029130364 -0.0008075098 -0.000101819096 9.041306e-06 2.6175103e-05 -0.000912299 -0.0009347534 0.0014506219 -0.0011654687 -0.001278494 -0.000991204 0.0010605718
isha -0.00067041523 -1.7148788e-05 0.0010088431 -0.0011293696 0.001078747 -0.00073970883 -0.00054654013 -0.0014386394 -0.0007619247 -1.2373314e-05 0.00043466297 0.00049044954 -0.0009150048 -0.0003377417 0.00063681626 -0.001237127 -0.00021678052 -0.00015674577 0.00013107064 0.00024401065 -0.00078826793 0.0005502173 0.0015374508 -0.0006607085 0.00024372998 -0.0011404102 9.322201e-05 -0.00046546644 -0.00058916863 -0.0014010036 0.00078864786 -0.0010565182 0.0008889011 -0.0004945735 0.0010311143 -0.0010853552 0.0010275312 -0.0015415816 -0.0004852624 0.00084943394 -0.0004549787 -0.0004878104 0.0006864084 0.001561704 0.00089601456 -0.0016558205 0.00054833916 0.0012064576 0.0015989913 0.0010419431 0.0014849257 0.0009572467 -0.00066467066 0.0011303009 0.001406575 0.00034089916 -0.0002968741 -0.00045150105 -0.0013944545 0.0004881725 -0.00057244446 0.00130578 -0.00040713022 -0.0011252486 -8.777497e-05 -0.0011654833 0.0006195009 0.00013797733 0.00013594888 0.0007041011 0.0003979475 -0.000988833 0.0009938009 -0.001511219 -0.0014491661 -0.00067995687 0.0011761183 -0.0007919779 -0.0015636402 0.0011512274 0.00086940185 -0.0013270831 0.001593257 0.0005997558 -0.00070955773 0.00063003803 0.0010059103 -0.001350669 -0.00028509775 0.0011941709 0.0004966695 3.8447e-05 -0.00036226638 0.00069304585 1.7428381e-05 -0.0008754599 0.0006021496 -0.00090135523 0.0007556448 -9.420555e-05 5.8106114e-05 -0.00022759404 -0.0014244996 -0.00052233064 0.001516779 -0.0009412242 -0.0004957586 -0.0013830061 -0.0011833447 0.00048604148 -0.00080831395 -0.0006205547 -0.0001073747 0.0011784133 0.00072506606 0.0009841394 0.0005481973 0.0010713419 -0.0016079883 -0.0006328527 0.000656546 -0.00019929634 -0.0009029927 0.0013059016 0.0010612207 0.0009312296 0.00033602063 -0.0011671198 -0.0010552095 0.00042645683 0.0014909013 6.132568e-05 0.00033151082 -0.00032588182 0.00076371327 -0.0007196636 -0.0010140474 -0.0010646363 -0.0012620919 -0.0014652461 -0.0014484376 0.0016022676 -0.00061437546 0.0006147469 0.0012631759 -0.00041336755 0.0014550788 -0.00068374095 -0.0010823436 0.00119273 -0.00043320842 -0.00067984447 -0.0007804466 -0.00107828 0.0015815675 -0.0008620111 0.00056124665 0.00030228283 0.0003090035 4.9686038e-05 -0.0012557716 -0.00037486522 -0.00057717826 -0.0012250916 0.0009821733 0.00051426294 -0.00039241 -0.00046023057 -0.00040866778 0.0012443548 0.001220289 -7.557883e-06 0.0012951666 -0.0014001335 0.0012436103 -0.0006758966 0.0003801058 0.00050283066 -3.072732e-05 1.5080386e-06 -0.00084465975 0.0002696523 0.0013993236 0.001597288 0.00063030707 -0.00057349517 0.000826932 0.0010345518 -0.0014919593 -0.0011465771 0.0010449347 0.00017907684 -0.0013382288 -0.0007969419 0.001644857 -0.0010717541 -0.00062223565 0.0012955784 -0.0004103381 0.0013871484 0.0010456567 -0.0011409327 -0.0002835029 -0.00019418486 0.0013547239 0.0006059955 0.0011123357 0.0005036991 -0.0010489951 0.00061759894 -0.0013375687 0.0011809814 -0.001101393 -0.00013370835 0.00051622425 0.0010588994 -0.000814775 0.000473741 0.00041710527 0.0013465871 -0.00039175918 -0.0006315974 -0.0015953353 0.0008372889 0.001415069 0.001148884 0.0013548227 -0.00036338824 0.00024895245 -0.001063759 0.00029987164 0.0008484235 -0.001425649 0.00041309715 -0.00024294174 -0.00012616959 0.0007789765 -0.0016261097 0.00039459878 0.0013372641 -0.00031876177 -0.0006152265 -4.690368e-05 0.00068247324 0.0014219007 0.001206489 -0.00045289923 -0.00078710524 -0.0003993725 -0.00023181172 -0.00046844833 -0.0006261079 0.0010875129 -0.0013041407 -0.00048977847 0.0006054115 0.0012151406 0.0013271815 0.0012236226 -0.0012089679 -0.0016711964 -0.0014275032 -0.0006126763 -0.00076082436 0.000820006 -0.0015369476 -0.00016030655 -0.0011149012 -0.00081497285 0.00051852025 -0.000635542 -0.00023347289 0.00034772084 0.0003145217 -0.0014088557 0.0007142864 -0.0014605984 -0.0012264344 0.0012989584 0.00028333397 0.0013860421 8.343494e-05 0.001438813 0.00055972004 0.0008602618 -0.0012792343 -0.0011247047 0.0016219591 0.00061500235 -0.001515593 0.0015171549 0.0011484398 0.0005916528 -0.0010123888 0.001083524 0.0011443372 0.0011877366 -0.0007135741 -0.0006202293 -0.0010539155
ambani -4.4429697e-05 0.00017974722 -0.0009241178 -0.000562626 0.00028515965 -0.0003202126 -0.0006616299 3.9079245e-05 0.0009076989 -0.001636067 -0.0014224526 0.0013938894 0.00054045336 0.0007676033 0.0011936929 0.0005084183 -0.0003008624 -0.0012459189 -0.00056727557 0.00073536404 0.0009479606 0.001254994 -0.0009230017 -0.000850204 0.00042551677 -0.0003908493 0.00033736308 -0.0013722925 -0.00047282068 -0.000372954 0.0003444384 -0.0012549972 -0.001007901 0.000869437 0.000573221 0.00013200003 0.001312528 -0.000545646 -0.0016210689 -0.00031888622 -7.629104e-05 -0.0004035277 0.0009950732 0.0011146517 0.0012727765 -0.00024816388 -0.00042400678 0.0015225818 0.0013891935 -0.0015451685 -4.67882e-05 -0.00033244415 0.0010285054 0.0012761793 0.0004683822 0.0011934162 0.00031165517 -0.00016291799 -0.0010530181 -0.0014406503 -0.00096199807 0.0013278158 0.00023756159 0.00046393587 0.00028924274 0.00046211373 0.0014035449 -0.00084030785 0.0013217025 0.00034708023 -0.0012896074 0.0011515365 -0.00054567313 0.001265782 -0.00025557098 0.00045153382 0.0011895192 -0.0016537734 -0.00010934882 -0.0007576087 0.0004599557 0.0012149609 0.0005975293 0.001518642 0.0005446086 -0.0012667967 0.0009991102 0.00081364275 0.0016510562 -0.00017349429 -0.0007991392 0.0011058557 -0.001161292 0.001047535 0.0014653421 -0.0012932981 -0.00027167975 0.0016390104 0.0005898894 0.001060649 0.0014774058 0.00036958844 0.0005952252 -1.6417129e-05 0.00069484767 0.00075076683 0.00039527167 0.0010239548 -0.0014820982 -0.00089057814 -0.0007096213 0.00076449855 0.00042721673 -0.00041897484 -0.00025853585 0.0003159705 -0.0005693998 -0.000496623 -0.0015270105 -0.00030174514 0.0013930447 0.0008073861 0.0013791233 0.0012426291 -0.0016544912 0.0013115702 0.00013046923 0.0012372821 0.0013343465 -0.0005402175 -0.00063862 -0.0010471906 0.00041935538 -0.00064313196 0.0010361293 -0.0002550328 -0.00029201785 -0.00095249864 -0.00057957956 0.0011394455 -0.00038162252 0.00060544163 -0.0007293095 -0.00052816555 -0.0015820429 -0.0012870773 -0.0006931712 0.0002168051 -0.0009576884 -0.0009112865 0.0007249774 6.67024e-05 -0.00013968389 -0.0016648388 0.0007011149 -0.0014071793 -5.2351337e-05 -0.0012602394 -0.0005189973 -0.00048926496 0.0002586432 -0.00067467004 -0.0013874073 0.0012097184 -0.0015978738 4.0936633e-05 -0.00064554537 -0.000497801 -0.0011461553 -0.0011311515 -0.000486654 0.00066562794 0.00033282407 -0.00023067581 -0.0012031195 0.00083812897 -0.0010779421 -0.0016153109 -0.0016615317 -0.0012161783 0.0002616625 0.0012605941 -6.787585e-05 -3.4348508e-05 -0.0003117259 0.0012006798 0.0007340586 -0.00073619885 -0.0008776763 -0.0006656838 -5.809605e-05 -0.0014730643 0.0011508185 -0.0008968151 0.001283071 -0.00093517307 -3.353422e-05 0.0012048413 -0.00013540564 -0.0015572357 -0.000315678 0.0009499576 0.0014456097 -0.001093823 0.000422558 -0.00021333096 0.00072550686 0.0004178127 0.00055368635 -0.0016072101 -0.0015698383 -0.0012081923 0.00037476505 0.0015659123 -0.0016571347 -0.0003135234 0.0007233514 0.00094595674 0.000661136 -0.0013072317 -2.213671e-05 -0.00048802028 -0.0006716821 0.0007092216 0.001586663 0.0013031702 0.0016314604 -0.00065222784 3.325878e-06 -0.0014932267 0.0014057084 0.0013363751 -0.0004068306 -0.0006269163 -0.00036042376 -0.00087995414 0.0013453773 0.0010199086 0.0010860694 -3.452952e-05 -0.0001424318 -0.0015519758 0.00029002468 -0.00038723377 0.0016549006 -0.00033970666 0.0004947538 -0.0010064262 0.00024363933 -0.00016661172 -0.00028494155 0.0008777228 -0.00036192167 0.0011359557 -0.0013384755 0.0009752446 0.00019620475 0.001358853 0.00097552227 -0.0010666546 -0.0010589794 0.001474945 -3.8352457e-05 0.00095357414 -0.0002730953 -0.0002551337 0.00043082502 -0.0012998648 0.00039516157 -0.0013390908 -0.0010619937 0.0012458975 -0.00029371158 -0.00020346264 -0.0008606425 -0.00067987555 -0.0003155431 -0.0008321642 -0.0013532776 -0.00070352334 0.00053303945 0.0009779629 0.0010682661 0.0011144066 -0.00093815196 -0.0011275914 0.0014088893 0.0005173729 -0.0010320547 -0.0015916536 -0.00011304173 -0.0012328661 -0.0010657323 0.001224978 -0.0008043676 -0.00016821275 0.0013510503 -0.00018254794 0.00091316365 0.0007799801
anand -1.4795101e-05 -0.0014577112 0.0014930551 0.0015400723 0.0003382633 0.0002912162 0.0011962274 0.0015898653 0.0014799981 0.00014743577 0.0008758016 0.00037885507 -0.0007258377 0.00095969695 0.0011440805 -0.0015733719 -0.00021404821 -0.0011303951 -0.0010850764 -0.0009033928 0.001085701 0.0012966384 0.0010409537 0.0013626072 -0.0009713829 -0.00067279005 -0.0009165864 -0.0003928637 -0.0015972573 -0.0003379607 0.00082253886 -0.00148106 -0.0015415672 0.0013475342 0.0012602616 -0.00010505198 -8.775996e-06 0.0015213903 0.00043792318 0.0010369851 0.0004783766 0.0006619906 3.2769127e-05 -0.001656912 0.00034352337 0.0015284584 0.00037315852 0.0006880648 0.0015613507 -0.0016260464 0.0015436913 0.0011356882 0.0015853887 0.0016508036 0.0008947465 0.0016385273 0.0002246296 0.0002270402 0.00053305144 0.0013765611 0.00017167303 0.0004956024 -0.0011246931 -0.0002248094 0.0005268322 -0.0014138438 -0.00014420511 0.00038302594 -0.0008223208 0.0013398918 -0.0011923385 0.0016293945 0.0016527688 0.000249796 -0.00060125114 -0.0009352499 -0.0009642409 -0.00091118563 0.0013007275 0.000113316746 0.0015436538 0.0006847825 -0.0010786476 0.0008706033 -0.0007616917 0.00031225695 -0.0015255662 0.00015482114 -0.00028185896 0.00018780473 -0.0013391867 0.001659836 -0.001639273 0.0007006658 -0.0003448734 0.0014476052 -0.0010794844 0.00078077294 -0.000695807 0.0003316347 0.0015930342 0.0006158543 -0.0016109579 0.0015997242 -0.0008280894 0.0007633908 -0.0011463582 -0.0009948069 -0.0003864854 -0.0004167331 -0.0008892311 -0.00074097037 -0.00067176257 0.00083045004 0.0013390222 0.0005673462 0.00027154488 -0.00057958905 -0.0008595035 -0.0010671266 0.00029712694 -0.00041962793 0.00094251323 -0.0011952292 -0.001580721 0.0005043145 0.0010027152 0.0010589551 -0.00015384344 0.00024743468 -0.00017969044 0.00038503 -0.0008297367 0.000117058065 0.000119308774 -0.0009409198 0.00070683897 -0.0002683161 0.0013143059 0.0006578719 0.00045704853 -0.00097629207 -0.00065727485 -0.00045728698 0.00034054858 -0.0006022305 0.001261403 -0.0014082699 -5.240711e-05 0.0013622 -0.0001589565 0.0009448084 -0.0004277737 1.75958e-05 -0.00055643957 -0.00068477297 -0.0015266784 8.477633e-05 0.0008920798 -0.0015986904 -0.00087530783 -0.0015061115 0.0008788733 0.0010807015 0.0009347047 -0.0009742993 -6.1135244e-05 0.0012184854 -0.0013804788 0.0010461794 0.0007462673 -0.0008740289 -0.001459801 0.0006804747 0.00090079824 -0.0010332853 0.0013055914 0.001258553 0.000118756914 0.0012043448 -0.0008063363 0.00042127605 0.0008327772 -0.00070826896 0.0002687475 -0.0014359986 -0.0014681732 -0.0012104001 -0.00033336668 0.00020831238 -0.001047169 0.00097255496 0.00032727525 -0.0011732698 0.0011767918 -0.00043340304 -0.0015280503 0.0014686452 -0.001043109 0.0013257145 -0.0004907633 0.001222029 -0.0015094726 -0.0013174962 0.00052791403 0.0004327207 -0.0005799953 0.00023917112 0.0015426965 -0.00090778834 -0.0015579179 5.7163776e-05 -0.001304928 -0.0001439955 -0.001135539 -0.0003250236 -0.0012373441 0.00024457663 -0.0006196918 0.0010627562 -0.0011143395 -0.00073557126 -0.00023153606 -0.0005496294 0.001272074 0.0010512682 0.0010450267 0.0004323339 -0.0005922206 0.000103179475 -9.435748e-05 -0.0011795417 -0.001033298 -5.1614956e-05 -0.00023204305 -0.0009454516 -0.0016550041 -0.00017364726 0.00084419607 -0.0013490029 -0.0012503305 0.001341294 -0.00011276325 0.0008959089 0.0014253589 0.00020704042 0.0010939321 -0.0014704041 -3.7633035e-05 -0.00010398624 0.00091968727 -0.0008279817 0.0006384079 -0.0014831384 -0.00047677135 -0.0006081836 -0.0001854836 0.0005227716 0.0015619126 -0.0002849196 -0.00015101371 0.0014941382 0.00094466447 -0.0007918958 0.0005760298 0.0013799655 0.00096863386 -0.0013047126 -0.0010399834 0.00042336417 0.0001609187 -0.00074025907 0.00049129204 -0.0015122681 -0.0003500413 0.00058167253 0.00068545283 -0.00038698592 0.0015410933 0.0005775489 0.0005658204 -0.001450134 -0.0007328666 -0.0009588152 -0.0014946101 0.00066719076 -0.0010240243 0.000510268 -0.00039833045 -0.0011239555 0.0013376491 -0.0016594338 -0.0005417958 -0.0005096134 -0.0011132112 -3.325095e-05 0.001032039 0.0002974271 0.0009404527 0.0002435175
piramal 0.0009944756 0.0015933353 0.00034954897 0.0011844615 0.00013635494 -0.0008314716 -0.00042623232 -0.0011212187 0.0016525742 -0.0012345848 -0.0014505252 -0.0014987101 -0.0011370225 -0.00040134383 0.0013010441 -0.00090925844 -0.0013510695 -0.0015200621 -0.0006692323 7.168899e-05 0.0014060788 -0.0011536436 0.0013964311 0.0011846543 -0.0007440276 -3.0922947e-05 -0.0005254432 -0.0016657551 2.2545395e-05 0.00035705822 -0.0016080972 0.00078628736 0.0010722828 0.0013236372 0.0011658858 0.0011171385 0.0005171503 0.0013723907 0.00034898243 -0.00036100973 0.0007253395 0.0015600853 -0.0011274196 -0.0007510869 0.0007021825 0.001222513 2.7371081e-05 -0.0004230774 -0.0015500563 -0.00064375036 -0.0009794714 -0.0008274219 0.00055927143 -0.00027727144 -2.1175943e-05 0.00042217487 0.0011835789 0.0007653805 0.00062784704 0.00081360893 0.0009749714 0.0013448953 3.5445493e-05 0.00089276844 0.0011045522 0.0013563145 -0.001315223 -0.00029094677 -0.0005254577 8.2982035e-05 0.0011106046 -0.0010625994 0.0011768402 0.0013749489 -0.0008225366 -7.235718e-05 0.0010911522 -0.0015411901 -0.0004957875 -0.0014941015 -0.001349342 -0.0011597234 -0.00047425862 -0.0009525379 0.000989746 -0.0009812412 -0.00049069535 0.0006561586 -0.000548339 0.0001682981 0.00054569705 0.0011436599 -0.0014727034 -0.00092859234 0.0006474941 0.0015920607 0.0007587368 0.00042981253 0.0004528494 -0.000884451 -0.00049181393 -0.00036736688 0.0013943622 -0.00090477837 0.00026316813 0.0013167688 0.00065746007 0.0016143011 0.0016005087 0.0014239073 0.00054544426 0.00023108274 -0.0012961432 -0.00045877148 -0.0015391721 0.0008748368 0.00068528013 0.00032850823 -0.0009111639 -0.0013192953 -0.0015858243 -0.000778313 -0.00072645466 0.0013680924 0.0010937067 -0.0005022913 -0.00083019113 0.0010557654 0.0011312927 -0.00081127614 0.0013433623 -0.00034758524 0.0010574544 0.00023569867 -0.00048369897 -0.0012048543 -0.0007430222 0.0003006988 -0.0012786174 0.0001617652 0.00027437133 7.9261656e-05 0.00022221262 -6.269535e-05 0.00089819223 0.0009427838 0.0007172074 -0.0002514777 0.00074883865 0.0010349709 0.001624966 0.00045834988 9.725251e-05 -0.0012389155 -0.0015102018 0.00046573344 0.0009516749 0.00010937599 0.0014625101 0.00065504 -0.00031883694 0.00025402752 -0.0010853683 0.00069621025 0.0012506507 0.0008122695 -0.0005750089 0.00093754806 0.001098304 0.0011171577 0.001202926 0.0016183826 -0.0016266087 -0.0014821972 0.0006168144 0.00088609266 -0.0007538712 -0.00045248363 -0.0016419098 -0.0007733005 0.0013885451 0.00026160237 0.00012766576 0.000794109 0.0010410285 -0.00011774892 -0.0015741491 0.0004918019 -0.000513246 0.0007983661 -0.0013820184 -0.0009488559 0.0006700326 0.0014279612 -0.00069008133 0.00024137797 0.0014949251 -1.261566e-05 -0.0005206292 -0.00023882589 0.00095409434 -0.0008718573 -2.2127111e-05 -0.0005245161 -0.0012673021 -0.00037219294 -0.0011848537 0.0008255294 0.0014483501 -0.0014331044 0.00079113845 0.0011462292 0.0008582922 -0.0006721599 -0.0011734233 0.0011428918 0.00044494472 0.0013099714 -0.0006434601 -0.0008254857 0.00036879783 -0.00023977505 -0.0016398907 -0.0012574418 0.00077282987 0.0005966259 0.0004691377 0.00080842036 -0.0004578451 0.0005836222 -0.001155067 -0.00043286086 0.0015260668 -0.0006707948 -0.0012671344 0.0011032412 -0.0015505911 0.00026401426 -0.0011285822 -0.0015510231 0.0006181494 -0.00034645793 -0.0011181073 -0.00021482357 -0.0011302119 -0.0012172243 -0.0015512445 0.0016419977 0.00023947624 -0.00013357736 -0.00023351389 -0.000115681374 -0.0015105281 0.00034359714 0.0011817116 -0.00055263116 -0.0015634312 -0.00086092943 -0.0011533411 0.00010430427 0.00016757815 0.0014436898 -0.0010750715 -0.00016912367 -0.0007410827 -0.0008366577 -0.0007762751 -0.0001895549 -0.00055526366 -6.5549364e-05 -0.00073204865 -0.00020623363 -0.00058605644 -0.0013100791 0.000851335 4.370961e-05 0.0013177777 -0.0013281315 0.0005853611 0.00024645487 0.0005257857 -0.00040530897 -0.00029450885 -0.00037652891 -0.00031214245 -0.0015890114 0.0014310179 0.0005514386 -5.20096e-05 -0.0014322848 0.000907729 -8.873665e-05 -0.0009279188 0.00020728618 -0.0010510689 -0.00054318336 -0.0013468418 -0.0007523992 -0.0010274035 0.0012404625
